<?xml version="1.0"?>
<opencv_storage>
<stage6>
  <maxWeakCount>11</maxWeakCount>
  <stageThreshold>-1.1493426561355591e+00</stageThreshold>
  <weakClassifiers>
    <_>
      <internalNodes>
        0 -1 3078236 -1.6768582165241241e-02</internalNodes>
      <leafValues>
        5.8682632446289062e-01 -3.6090224981307983e-01</leafValues></_>
    <_>
      <internalNodes>
        0 -1 2680266 6.3074557110667229e-03</internalNodes>
      <leafValues>
        -7.0058453083038330e-01 2.9709473252296448e-01</leafValues></_>
    <_>
      <internalNodes>
        0 -1 2983558 -7.6893717050552368e-04</internalNodes>
      <leafValues>
        3.2095021009445190e-01 -5.2530449628829956e-01</leafValues></_>
    <_>
      <internalNodes>
        0 -1 1997838 2.7046449482440948e-02</internalNodes>
      <leafValues>
        2.2747690975666046e-01 -7.6617604494094849e-01</leafValues></_>
    <_>
      <internalNodes>
        0 -1 4663942 8.6817434057593346e-03</internalNodes>
      <leafValues>
        -4.4564023613929749e-01 4.0791520476341248e-01</leafValues></_>
    <_>
      <internalNodes>
        0 -1 4430757 -5.9924079105257988e-03</internalNodes>
      <leafValues>
        6.1726301908493042e-01 -2.8740644454956055e-01</leafValues></_>
    <_>
      <internalNodes>
        0 -1 3408787 8.2222595810890198e-03</internalNodes>
      <leafValues>
        -2.1132463216781616e-01 7.1371662616729736e-01</leafValues></_>
    <_>
      <internalNodes>
        0 -1 4360644 1.3636177405714989e-02</internalNodes>
      <leafValues>
        -2.0059044659137726e-01 8.4207868576049805e-01</leafValues></_>
    <_>
      <internalNodes>
        0 -1 2951476 -7.3824974242597818e-04</internalNodes>
      <leafValues>
        -7.9016780853271484e-01 2.4314178526401520e-01</leafValues></_>
    <_>
      <internalNodes>
        0 -1 3926905 -8.6089074611663818e-03</internalNodes>
      <leafValues>
        4.7019347548484802e-01 -3.5085204243659973e-01</leafValues></_>
    <_>
      <internalNodes>
        0 -1 4514702 6.9232191890478134e-03</internalNodes>
      <leafValues>
        -2.0465649664402008e-01 8.0476874113082886e-01</leafValues></_></weakClassifiers></stage6>
</opencv_storage>
