<?xml version="1.0"?>
<opencv_storage>
<stage16>
  <maxWeakCount>14</maxWeakCount>
  <stageThreshold>-1.0646486282348633e+00</stageThreshold>
  <weakClassifiers>
    <_>
      <internalNodes>
        0 -1 4059778 4.6450126916170120e-02</internalNodes>
      <leafValues>
        -1.0960757732391357e-01 6.0954445600509644e-01</leafValues></_>
    <_>
      <internalNodes>
        0 -1 4277453 -4.4354302808642387e-03</internalNodes>
      <leafValues>
        3.7931847572326660e-01 -3.1138569116592407e-01</leafValues></_>
    <_>
      <internalNodes>
        0 -1 4113048 -6.5396614372730255e-03</internalNodes>
      <leafValues>
        6.5873521566390991e-01 -1.7214512825012207e-01</leafValues></_>
    <_>
      <internalNodes>
        0 -1 4668883 1.0144265368580818e-02</internalNodes>
      <leafValues>
        -1.6498968005180359e-01 8.1676685810089111e-01</leafValues></_>
    <_>
      <internalNodes>
        0 -1 3775596 1.7542460700497031e-03</internalNodes>
      <leafValues>
        3.7511613965034485e-01 -2.9467946290969849e-01</leafValues></_>
    <_>
      <internalNodes>
        0 -1 4543944 1.8829043954610825e-02</internalNodes>
      <leafValues>
        -1.7608264088630676e-01 7.3218178749084473e-01</leafValues></_>
    <_>
      <internalNodes>
        0 -1 3888860 4.2988476343452930e-03</internalNodes>
      <leafValues>
        -1.9724518060684204e-01 5.6389045715332031e-01</leafValues></_>
    <_>
      <internalNodes>
        0 -1 2492194 1.5811925986781716e-03</internalNodes>
      <leafValues>
        -3.1205183267593384e-01 3.5828158259391785e-01</leafValues></_>
    <_>
      <internalNodes>
        0 -1 3174083 -3.1158827245235443e-02</internalNodes>
      <leafValues>
        -5.7914435863494873e-01 2.1505436301231384e-01</leafValues></_>
    <_>
      <internalNodes>
        0 -1 3082257 2.5539072230458260e-03</internalNodes>
      <leafValues>
        1.4407181739807129e-01 -6.9527560472488403e-01</leafValues></_>
    <_>
      <internalNodes>
        0 -1 3827522 -8.2914647646248341e-04</internalNodes>
      <leafValues>
        3.5320663452148438e-01 -3.2389801740646362e-01</leafValues></_>
    <_>
      <internalNodes>
        0 -1 2702830 4.6283444389700890e-03</internalNodes>
      <leafValues>
        1.8340593576431274e-01 -7.9315632581710815e-01</leafValues></_>
    <_>
      <internalNodes>
        0 -1 3924899 5.7128816843032837e-02</internalNodes>
      <leafValues>
        8.9987114071846008e-02 -9.5116233825683594e-01</leafValues></_>
    <_>
      <internalNodes>
        0 -1 3817150 -6.0874875634908676e-03</internalNodes>
      <leafValues>
        7.0486778020858765e-01 -1.8778412044048309e-01</leafValues></_></weakClassifiers></stage16>
</opencv_storage>
