<?xml version="1.0"?>
<opencv_storage>
<stage17>
  <maxWeakCount>16</maxWeakCount>
  <stageThreshold>-1.1794953346252441e+00</stageThreshold>
  <weakClassifiers>
    <_>
      <internalNodes>
        0 -1 3752743 1.1165427975356579e-02</internalNodes>
      <leafValues>
        -1.8012422323226929e-01 5.6834530830383301e-01</leafValues></_>
    <_>
      <internalNodes>
        0 -1 2991548 -2.1634902805089951e-03</internalNodes>
      <leafValues>
        -6.6139715909957886e-01 2.2283713519573212e-01</leafValues></_>
    <_>
      <internalNodes>
        0 -1 3813506 1.4521460048854351e-02</internalNodes>
      <leafValues>
        -2.0189698040485382e-01 6.6925638914108276e-01</leafValues></_>
    <_>
      <internalNodes>
        0 -1 3882419 -1.2058209627866745e-02</internalNodes>
      <leafValues>
        6.1770868301391602e-01 -2.5261515378952026e-01</leafValues></_>
    <_>
      <internalNodes>
        0 -1 2973301 9.1745096142403781e-05</internalNodes>
      <leafValues>
        -6.6244333982467651e-01 2.7887433767318726e-01</leafValues></_>
    <_>
      <internalNodes>
        0 -1 2210416 4.6004476025700569e-03</internalNodes>
      <leafValues>
        -3.1392857432365417e-01 4.5790335536003113e-01</leafValues></_>
    <_>
      <internalNodes>
        0 -1 2689175 -5.1605496555566788e-02</internalNodes>
      <leafValues>
        -8.4598100185394287e-01 2.1840567886829376e-01</leafValues></_>
    <_>
      <internalNodes>
        0 -1 4403678 1.1425681412220001e-02</internalNodes>
      <leafValues>
        -2.6078686118125916e-01 7.4954199790954590e-01</leafValues></_>
    <_>
      <internalNodes>
        0 -1 3930675 2.6191771030426025e-02</internalNodes>
      <leafValues>
        -8.6750075221061707e-02 9.4192951917648315e-01</leafValues></_>
    <_>
      <internalNodes>
        0 -1 2702813 3.0550407245755196e-03</internalNodes>
      <leafValues>
        -2.9485455155372620e-01 4.8172125220298767e-01</leafValues></_>
    <_>
      <internalNodes>
        0 -1 2633559 9.0520065277814865e-03</internalNodes>
      <leafValues>
        -1.4402408897876740e-01 7.0854151248931885e-01</leafValues></_>
    <_>
      <internalNodes>
        0 -1 2327874 1.7992524662986398e-03</internalNodes>
      <leafValues>
        1.4862015843391418e-01 -7.5454372167587280e-01</leafValues></_>
    <_>
      <internalNodes>
        0 -1 3983825 -5.0680814310908318e-03</internalNodes>
      <leafValues>
        4.4149067997932434e-01 -2.5059434771537781e-01</leafValues></_>
    <_>
      <internalNodes>
        0 -1 3684057 -7.4434787966310978e-03</internalNodes>
      <leafValues>
        6.4796966314315796e-01 -2.2459056973457336e-01</leafValues></_>
    <_>
      <internalNodes>
        0 -1 2971976 7.9907085746526718e-03</internalNodes>
      <leafValues>
        1.8523570895195007e-01 -8.4077900648117065e-01</leafValues></_>
    <_>
      <internalNodes>
        0 -1 3085396 -2.5216031819581985e-02</internalNodes>
      <leafValues>
        -8.3930826187133789e-01 1.1246176809072495e-01</leafValues></_></weakClassifiers></stage17>
</opencv_storage>
