<?xml version="1.0"?>
<opencv_storage>
<stage4>
  <maxWeakCount>5</maxWeakCount>
  <stageThreshold>-3.7835791707038879e-01</stageThreshold>
  <weakClassifiers>
    <_>
      <internalNodes>
        0 -1 4618129 1.8910933285951614e-03</internalNodes>
      <leafValues>
        5.5555558204650879e-01 -8.3333331346511841e-01</leafValues></_>
    <_>
      <internalNodes>
        0 -1 3246169 -8.0131372669711709e-04</internalNodes>
      <leafValues>
        -6.9692820310592651e-01 3.8847208023071289e-01</leafValues></_>
    <_>
      <internalNodes>
        0 -1 433515 4.7357176663354039e-04</internalNodes>
      <leafValues>
        5.1925671100616455e-01 -5.7400059700012207e-01</leafValues></_>
    <_>
      <internalNodes>
        0 -1 1662357 -1.3346062041819096e-04</internalNodes>
      <leafValues>
        -8.6295938491821289e-01 2.9865053296089172e-01</leafValues></_>
    <_>
      <internalNodes>
        0 -1 3581210 4.1349494131281972e-04</internalNodes>
      <leafValues>
        3.4185335040092468e-01 -7.8459101915359497e-01</leafValues></_></weakClassifiers></stage4>
</opencv_storage>
