<?xml version="1.0"?>
<opencv_storage>
<cascade>
  <stageType>BOOST</stageType>
  <featureType>HAAR</featureType>
  <height>50</height>
  <width>50</width>
  <stageParams>
    <boostType>GAB</boostType>
    <minHitRate>9.9900001287460327e-01</minHitRate>
    <maxFalseAlarm>5.0000000000000000e-01</maxFalseAlarm>
    <weightTrimRate>9.4999999999999996e-01</weightTrimRate>
    <maxDepth>1</maxDepth>
    <maxWeakCount>100</maxWeakCount></stageParams>
  <featureParams>
    <maxCatCount>0</maxCatCount>
    <featSize>1</featSize>
    <mode>ALL</mode></featureParams>
  <stageNum>20</stageNum>
  <stages>
    <!-- stage 0 -->
    <_>
      <maxWeakCount>5</maxWeakCount>
      <stageThreshold>1.0438767261803150e-02</stageThreshold>
      <weakClassifiers>
        <_>
          <internalNodes>
            0 -1 6 7.0284775574691594e-05</internalNodes>
          <leafValues>
            6.0000002384185791e-01 -4.9090909957885742e-01</leafValues></_>
        <_>
          <internalNodes>
            0 -1 114 -7.3727875133045018e-05</internalNodes>
          <leafValues>
            -6.5639209747314453e-01 4.3424382805824280e-01</leafValues></_>
        <_>
          <internalNodes>
            0 -1 100 3.2094339258037508e-04</internalNodes>
          <leafValues>
            3.8956865668296814e-01 -7.4823927879333496e-01</leafValues></_>
        <_>
          <internalNodes>
            0 -1 83 -2.1669792477041483e-04</internalNodes>
          <leafValues>
            -7.0997917652130127e-01 3.6089184880256653e-01</leafValues></_>
        <_>
          <internalNodes>
            0 -1 92 4.3782441935036331e-05</internalNodes>
          <leafValues>
            4.8490515351295471e-01 -6.3645762205123901e-01</leafValues></_></weakClassifiers></_>
    <!-- stage 1 -->
    <_>
      <maxWeakCount>5</maxWeakCount>
      <stageThreshold>-8.0673086643218994e-01</stageThreshold>
      <weakClassifiers>
        <_>
          <internalNodes>
            0 -1 23 -6.1851300415582955e-05</internalNodes>
          <leafValues>
            -5.9259259700775146e-01 6.2573099136352539e-01</leafValues></_>
        <_>
          <internalNodes>
            0 -1 30 -7.2297683800570667e-05</internalNodes>
          <leafValues>
            -7.1372443437576294e-01 4.1583305597305298e-01</leafValues></_>
        <_>
          <internalNodes>
            0 -1 14 -2.3535035143140703e-04</internalNodes>
          <leafValues>
            -6.9449794292449951e-01 4.5323362946510315e-01</leafValues></_>
        <_>
          <internalNodes>
            0 -1 20 -9.1075293312314898e-05</internalNodes>
          <leafValues>
            -7.8354036808013916e-01 3.6324578523635864e-01</leafValues></_>
        <_>
          <internalNodes>
            0 -1 81 1.8538674339652061e-03</internalNodes>
          <leafValues>
            -3.7025660276412964e-01 8.0721807479858398e-01</leafValues></_></weakClassifiers></_>
    <!-- stage 2 -->
    <_>
      <maxWeakCount>5</maxWeakCount>
      <stageThreshold>-8.9396500587463379e-01</stageThreshold>
      <weakClassifiers>
        <_>
          <internalNodes>
            0 -1 36 -1.2263428652659059e-04</internalNodes>
          <leafValues>
            -8.0952382087707520e-01 5.9562844038009644e-01</leafValues></_>
        <_>
          <internalNodes>
            0 -1 112 -5.5009499192237854e-05</internalNodes>
          <leafValues>
            -7.3136782646179199e-01 4.0886721014976501e-01</leafValues></_>
        <_>
          <internalNodes>
            0 -1 84 -1.5547795919701457e-03</internalNodes>
          <leafValues>
            -5.3270876407623291e-01 6.2613004446029663e-01</leafValues></_>
        <_>
          <internalNodes>
            0 -1 64 -4.4566906581167132e-05</internalNodes>
          <leafValues>
            -6.9073450565338135e-01 4.3872642517089844e-01</leafValues></_>
        <_>
          <internalNodes>
            0 -1 58 2.6899492368102074e-03</internalNodes>
          <leafValues>
            4.4079679250717163e-01 -6.6424322128295898e-01</leafValues></_></weakClassifiers></_>
    <!-- stage 3 -->
    <_>
      <maxWeakCount>5</maxWeakCount>
      <stageThreshold>-1.0392875671386719e+00</stageThreshold>
      <weakClassifiers>
        <_>
          <internalNodes>
            0 -1 95 -1.7246296920347959e-04</internalNodes>
          <leafValues>
            -6.0000002384185791e-01 5.6666666269302368e-01</leafValues></_>
        <_>
          <internalNodes>
            0 -1 50 -5.7405652478337288e-04</internalNodes>
          <leafValues>
            -6.4640969038009644e-01 4.0931394696235657e-01</leafValues></_>
        <_>
          <internalNodes>
            0 -1 12 4.1830592090263963e-04</internalNodes>
          <leafValues>
            4.2521375417709351e-01 -6.3349509239196777e-01</leafValues></_>
        <_>
          <internalNodes>
            0 -1 51 9.1536305262707174e-05</internalNodes>
          <leafValues>
            3.4754949808120728e-01 -6.6495907306671143e-01</leafValues></_>
        <_>
          <internalNodes>
            0 -1 102 -1.6432383563369513e-04</internalNodes>
          <leafValues>
            -7.1681404113769531e-01 3.3728316426277161e-01</leafValues></_></weakClassifiers></_>
    <!-- stage 4 -->
    <_>
      <maxWeakCount>5</maxWeakCount>
      <stageThreshold>-3.7835791707038879e-01</stageThreshold>
      <weakClassifiers>
        <_>
          <internalNodes>
            0 -1 93 1.8910933285951614e-03</internalNodes>
          <leafValues>
            5.5555558204650879e-01 -8.3333331346511841e-01</leafValues></_>
        <_>
          <internalNodes>
            0 -1 66 -8.0131372669711709e-04</internalNodes>
          <leafValues>
            -6.9692820310592651e-01 3.8847208023071289e-01</leafValues></_>
        <_>
          <internalNodes>
            0 -1 19 4.7357176663354039e-04</internalNodes>
          <leafValues>
            5.1925671100616455e-01 -5.7400059700012207e-01</leafValues></_>
        <_>
          <internalNodes>
            0 -1 48 -1.3346062041819096e-04</internalNodes>
          <leafValues>
            -8.6295938491821289e-01 2.9865053296089172e-01</leafValues></_>
        <_>
          <internalNodes>
            0 -1 72 4.1349494131281972e-04</internalNodes>
          <leafValues>
            3.4185335040092468e-01 -7.8459101915359497e-01</leafValues></_></weakClassifiers></_>
    <!-- stage 5 -->
    <_>
      <maxWeakCount>4</maxWeakCount>
      <stageThreshold>1.7150802537798882e-02</stageThreshold>
      <weakClassifiers>
        <_>
          <internalNodes>
            0 -1 121 -3.9653430576436222e-05</internalNodes>
          <leafValues>
            -4.4827586412429810e-01 6.0479038953781128e-01</leafValues></_>
        <_>
          <internalNodes>
            0 -1 91 1.7651420785114169e-04</internalNodes>
          <leafValues>
            5.3545188903808594e-01 -5.9604018926620483e-01</leafValues></_>
        <_>
          <internalNodes>
            0 -1 70 6.1536375433206558e-02</internalNodes>
          <leafValues>
            -2.9887914657592773e-01 8.7851321697235107e-01</leafValues></_>
        <_>
          <internalNodes>
            0 -1 118 5.9299127315171063e-05</internalNodes>
          <leafValues>
            3.4160611033439636e-01 -8.2421237230300903e-01</leafValues></_></weakClassifiers></_>
    <!-- stage 6 -->
    <_>
      <maxWeakCount>6</maxWeakCount>
      <stageThreshold>-5.5795288085937500e-01</stageThreshold>
      <weakClassifiers>
        <_>
          <internalNodes>
            0 -1 7 -9.8530079412739724e-05</internalNodes>
          <leafValues>
            -5.5102038383483887e-01 5.7954543828964233e-01</leafValues></_>
        <_>
          <internalNodes>
            0 -1 110 -2.9917724896222353e-04</internalNodes>
          <leafValues>
            -6.4413297176361084e-01 4.0897512435913086e-01</leafValues></_>
        <_>
          <internalNodes>
            0 -1 111 -8.4623272414319217e-05</internalNodes>
          <leafValues>
            -7.3582476377487183e-01 4.1016301512718201e-01</leafValues></_>
        <_>
          <internalNodes>
            0 -1 65 -8.7115440692286938e-05</internalNodes>
          <leafValues>
            -4.7961565852165222e-01 4.8967534303665161e-01</leafValues></_>
        <_>
          <internalNodes>
            0 -1 119 -9.0339948656037450e-05</internalNodes>
          <leafValues>
            -7.2132498025894165e-01 3.4103500843048096e-01</leafValues></_>
        <_>
          <internalNodes>
            0 -1 113 -1.0114108590641990e-04</internalNodes>
          <leafValues>
            -6.0367280244827271e-01 4.0622761845588684e-01</leafValues></_></weakClassifiers></_>
    <!-- stage 7 -->
    <_>
      <maxWeakCount>7</maxWeakCount>
      <stageThreshold>-7.2764307260513306e-03</stageThreshold>
      <weakClassifiers>
        <_>
          <internalNodes>
            0 -1 46 6.2624961137771606e-03</internalNodes>
          <leafValues>
            5.3513514995574951e-01 -6.0000002384185791e-01</leafValues></_>
        <_>
          <internalNodes>
            0 -1 89 5.6293550878763199e-03</internalNodes>
          <leafValues>
            -3.0711379647254944e-01 6.1681061983108521e-01</leafValues></_>
        <_>
          <internalNodes>
            0 -1 40 -1.0523536911932752e-04</internalNodes>
          <leafValues>
            -6.9320851564407349e-01 3.2764559984207153e-01</leafValues></_>
        <_>
          <internalNodes>
            0 -1 69 5.2690877055283636e-05</internalNodes>
          <leafValues>
            4.9130758643150330e-01 -4.9055266380310059e-01</leafValues></_>
        <_>
          <internalNodes>
            0 -1 9 -3.8072772440500557e-04</internalNodes>
          <leafValues>
            -6.5857708454132080e-01 3.7217205762863159e-01</leafValues></_>
        <_>
          <internalNodes>
            0 -1 115 -2.6768105453811586e-04</internalNodes>
          <leafValues>
            -5.9187513589859009e-01 4.3683966994285583e-01</leafValues></_>
        <_>
          <internalNodes>
            0 -1 37 -9.7620312590152025e-04</internalNodes>
          <leafValues>
            -6.0240864753723145e-01 4.0741199254989624e-01</leafValues></_></weakClassifiers></_>
    <!-- stage 8 -->
    <_>
      <maxWeakCount>5</maxWeakCount>
      <stageThreshold>-1.4562959969043732e-01</stageThreshold>
      <weakClassifiers>
        <_>
          <internalNodes>
            0 -1 101 1.5687755076214671e-03</internalNodes>
          <leafValues>
            5.3125000000000000e-01 -8.1818181276321411e-01</leafValues></_>
        <_>
          <internalNodes>
            0 -1 116 -6.2686129240319133e-05</internalNodes>
          <leafValues>
            -6.4695489406585693e-01 3.7057930231094360e-01</leafValues></_>
        <_>
          <internalNodes>
            0 -1 73 -1.0173582995776087e-04</internalNodes>
          <leafValues>
            -6.8420881032943726e-01 3.9483723044395447e-01</leafValues></_>
        <_>
          <internalNodes>
            0 -1 103 -4.7403482312802225e-05</internalNodes>
          <leafValues>
            -7.2991544008255005e-01 2.8562030196189880e-01</leafValues></_>
        <_>
          <internalNodes>
            0 -1 99 -2.1772275795228779e-04</internalNodes>
          <leafValues>
            -6.4887040853500366e-01 3.9366009831428528e-01</leafValues></_></weakClassifiers></_>
    <!-- stage 9 -->
    <_>
      <maxWeakCount>7</maxWeakCount>
      <stageThreshold>9.9530883133411407e-02</stageThreshold>
      <weakClassifiers>
        <_>
          <internalNodes>
            0 -1 120 -2.5163143873214722e-03</internalNodes>
          <leafValues>
            -3.7931033968925476e-01 5.8083832263946533e-01</leafValues></_>
        <_>
          <internalNodes>
            0 -1 32 5.1393777539487928e-05</internalNodes>
          <leafValues>
            3.8548037409782410e-01 -5.4625886678695679e-01</leafValues></_>
        <_>
          <internalNodes>
            0 -1 47 -3.9165187627077103e-03</internalNodes>
          <leafValues>
            -7.5566411018371582e-01 2.6531159877777100e-01</leafValues></_>
        <_>
          <internalNodes>
            0 -1 105 4.8128836169780698e-06</internalNodes>
          <leafValues>
            4.8815596103668213e-01 -5.1842367649078369e-01</leafValues></_>
        <_>
          <internalNodes>
            0 -1 29 2.0824253442697227e-04</internalNodes>
          <leafValues>
            5.7427746057510376e-01 -4.3262204527854919e-01</leafValues></_>
        <_>
          <internalNodes>
            0 -1 27 1.1780285276472569e-03</internalNodes>
          <leafValues>
            4.7973912954330444e-01 -5.5431836843490601e-01</leafValues></_>
        <_>
          <internalNodes>
            0 -1 117 -3.3046606404241174e-05</internalNodes>
          <leafValues>
            -6.1923873424530029e-01 4.3859297037124634e-01</leafValues></_></weakClassifiers></_>
    <!-- stage 10 -->
    <_>
      <maxWeakCount>6</maxWeakCount>
      <stageThreshold>1.0067591443657875e-02</stageThreshold>
      <weakClassifiers>
        <_>
          <internalNodes>
            0 -1 21 3.2241584267467260e-04</internalNodes>
          <leafValues>
            4.9494948983192444e-01 -8.5185188055038452e-01</leafValues></_>
        <_>
          <internalNodes>
            0 -1 13 -1.1619349243119359e-04</internalNodes>
          <leafValues>
            -6.1775434017181396e-01 3.8808676600456238e-01</leafValues></_>
        <_>
          <internalNodes>
            0 -1 57 -9.1108586639165878e-04</internalNodes>
          <leafValues>
            -6.9522994756698608e-01 3.2806387543678284e-01</leafValues></_>
        <_>
          <internalNodes>
            0 -1 98 -3.4586497349664569e-05</internalNodes>
          <leafValues>
            -6.8933415412902832e-01 3.2984006404876709e-01</leafValues></_>
        <_>
          <internalNodes>
            0 -1 1 -3.0193737075023819e-06</internalNodes>
          <leafValues>
            -4.5607879757881165e-01 5.0589323043823242e-01</leafValues></_>
        <_>
          <internalNodes>
            0 -1 76 -8.1411817518528551e-05</internalNodes>
          <leafValues>
            -6.6022694110870361e-01 3.2920974493026733e-01</leafValues></_></weakClassifiers></_>
    <!-- stage 11 -->
    <_>
      <maxWeakCount>8</maxWeakCount>
      <stageThreshold>-4.3346217274665833e-01</stageThreshold>
      <weakClassifiers>
        <_>
          <internalNodes>
            0 -1 96 -7.2475027991458774e-04</internalNodes>
          <leafValues>
            -7.4358975887298584e-01 5.5913978815078735e-01</leafValues></_>
        <_>
          <internalNodes>
            0 -1 87 -8.7691354565322399e-05</internalNodes>
          <leafValues>
            -6.0580658912658691e-01 3.4516468644142151e-01</leafValues></_>
        <_>
          <internalNodes>
            0 -1 63 -4.6052111429162323e-05</internalNodes>
          <leafValues>
            -4.6677488088607788e-01 5.0883847475051880e-01</leafValues></_>
        <_>
          <internalNodes>
            0 -1 94 -1.2294501066207886e-03</internalNodes>
          <leafValues>
            -7.2332715988159180e-01 3.1153661012649536e-01</leafValues></_>
        <_>
          <internalNodes>
            0 -1 88 3.0435772714554332e-05</internalNodes>
          <leafValues>
            4.7642719745635986e-01 -4.6042549610137939e-01</leafValues></_>
        <_>
          <internalNodes>
            0 -1 60 -3.5013366868952289e-05</internalNodes>
          <leafValues>
            -5.1816755533218384e-01 5.2798014879226685e-01</leafValues></_>
        <_>
          <internalNodes>
            0 -1 90 2.8402463067322969e-04</internalNodes>
          <leafValues>
            4.4050413370132446e-01 -5.9089326858520508e-01</leafValues></_>
        <_>
          <internalNodes>
            0 -1 43 -2.0315796136856079e-03</internalNodes>
          <leafValues>
            8.3658617734909058e-01 -3.1795501708984375e-01</leafValues></_></weakClassifiers></_>
    <!-- stage 12 -->
    <_>
      <maxWeakCount>5</maxWeakCount>
      <stageThreshold>4.6571373939514160e-02</stageThreshold>
      <weakClassifiers>
        <_>
          <internalNodes>
            0 -1 25 -7.4105941166635603e-05</internalNodes>
          <leafValues>
            -5.2380955219268799e-01 5.3005462884902954e-01</leafValues></_>
        <_>
          <internalNodes>
            0 -1 86 5.0269666826352477e-04</internalNodes>
          <leafValues>
            4.0296661853790283e-01 -5.6403505802154541e-01</leafValues></_>
        <_>
          <internalNodes>
            0 -1 56 1.8281451775692403e-04</internalNodes>
          <leafValues>
            3.4876975417137146e-01 -7.2849410772323608e-01</leafValues></_>
        <_>
          <internalNodes>
            0 -1 41 -2.6159282424487174e-04</internalNodes>
          <leafValues>
            -8.2429093122482300e-01 1.9758024811744690e-01</leafValues></_>
        <_>
          <internalNodes>
            0 -1 109 1.2268826831132174e-03</internalNodes>
          <leafValues>
            -3.4418302774429321e-01 6.6633510589599609e-01</leafValues></_></weakClassifiers></_>
    <!-- stage 13 -->
    <_>
      <maxWeakCount>7</maxWeakCount>
      <stageThreshold>-1.7016683518886566e-01</stageThreshold>
      <weakClassifiers>
        <_>
          <internalNodes>
            0 -1 11 -1.0306920739822090e-04</internalNodes>
          <leafValues>
            -2.6470589637756348e-01 5.9235668182373047e-01</leafValues></_>
        <_>
          <internalNodes>
            0 -1 53 1.7987392493523657e-04</internalNodes>
          <leafValues>
            4.1294509172439575e-01 -4.9003118276596069e-01</leafValues></_>
        <_>
          <internalNodes>
            0 -1 15 -1.4819217612966895e-03</internalNodes>
          <leafValues>
            -6.0626316070556641e-01 3.0963891744613647e-01</leafValues></_>
        <_>
          <internalNodes>
            0 -1 106 5.2879695431329310e-05</internalNodes>
          <leafValues>
            3.3943474292755127e-01 -6.1229836940765381e-01</leafValues></_>
        <_>
          <internalNodes>
            0 -1 22 -4.7883891966193914e-05</internalNodes>
          <leafValues>
            -6.0343021154403687e-01 3.4116929769515991e-01</leafValues></_>
        <_>
          <internalNodes>
            0 -1 55 -2.9854953754693270e-04</internalNodes>
          <leafValues>
            -4.4030264019966125e-01 4.5447492599487305e-01</leafValues></_>
        <_>
          <internalNodes>
            0 -1 68 3.8987223524600267e-04</internalNodes>
          <leafValues>
            2.6358604431152344e-01 -8.0130809545516968e-01</leafValues></_></weakClassifiers></_>
    <!-- stage 14 -->
    <_>
      <maxWeakCount>6</maxWeakCount>
      <stageThreshold>-6.0868310928344727e-01</stageThreshold>
      <weakClassifiers>
        <_>
          <internalNodes>
            0 -1 33 -6.2266306485980749e-05</internalNodes>
          <leafValues>
            -2.8571429848670959e-01 6.1290323734283447e-01</leafValues></_>
        <_>
          <internalNodes>
            0 -1 42 -3.1827404163777828e-03</internalNodes>
          <leafValues>
            8.1787711381912231e-01 -2.3211127519607544e-01</leafValues></_>
        <_>
          <internalNodes>
            0 -1 71 -3.4960272023454309e-04</internalNodes>
          <leafValues>
            -5.2347159385681152e-01 4.4781935214996338e-01</leafValues></_>
        <_>
          <internalNodes>
            0 -1 79 1.0290589125361294e-04</internalNodes>
          <leafValues>
            -4.3657755851745605e-01 5.8702605962753296e-01</leafValues></_>
        <_>
          <internalNodes>
            0 -1 61 -4.2991100599465426e-06</internalNodes>
          <leafValues>
            -4.4160577654838562e-01 6.0077536106109619e-01</leafValues></_>
        <_>
          <internalNodes>
            0 -1 8 -2.2747952607460320e-04</internalNodes>
          <leafValues>
            -7.9379487037658691e-01 3.3950650691986084e-01</leafValues></_></weakClassifiers></_>
    <!-- stage 15 -->
    <_>
      <maxWeakCount>8</maxWeakCount>
      <stageThreshold>-4.5707356929779053e-01</stageThreshold>
      <weakClassifiers>
        <_>
          <internalNodes>
            0 -1 5 -3.0777373467572033e-05</internalNodes>
          <leafValues>
            -2.7777779102325439e-01 6.2091505527496338e-01</leafValues></_>
        <_>
          <internalNodes>
            0 -1 78 -1.5700937365181744e-04</internalNodes>
          <leafValues>
            8.6432337760925293e-01 -2.2026944160461426e-01</leafValues></_>
        <_>
          <internalNodes>
            0 -1 85 -2.7767493156716228e-04</internalNodes>
          <leafValues>
            6.7026853561401367e-01 -2.8339040279388428e-01</leafValues></_>
        <_>
          <internalNodes>
            0 -1 24 -9.8904152400791645e-04</internalNodes>
          <leafValues>
            6.1620050668716431e-01 -3.6462649703025818e-01</leafValues></_>
        <_>
          <internalNodes>
            0 -1 18 -6.6308515670243651e-05</internalNodes>
          <leafValues>
            -6.3223487138748169e-01 4.1833013296127319e-01</leafValues></_>
        <_>
          <internalNodes>
            0 -1 54 -8.8248416432179511e-06</internalNodes>
          <leafValues>
            -4.3997722864151001e-01 5.4890620708465576e-01</leafValues></_>
        <_>
          <internalNodes>
            0 -1 10 -1.4283566270023584e-03</internalNodes>
          <leafValues>
            -5.7713907957077026e-01 4.3702578544616699e-01</leafValues></_>
        <_>
          <internalNodes>
            0 -1 26 -2.6537501980783418e-05</internalNodes>
          <leafValues>
            -5.6339943408966064e-01 5.0467777252197266e-01</leafValues></_></weakClassifiers></_>
    <!-- stage 16 -->
    <_>
      <maxWeakCount>7</maxWeakCount>
      <stageThreshold>8.8339418172836304e-02</stageThreshold>
      <weakClassifiers>
        <_>
          <internalNodes>
            0 -1 104 -7.0349509769584984e-05</internalNodes>
          <leafValues>
            -4.2857143282890320e-01 5.4545456171035767e-01</leafValues></_>
        <_>
          <internalNodes>
            0 -1 75 1.5437378897331655e-04</internalNodes>
          <leafValues>
            -3.1416955590248108e-01 6.3150328397750854e-01</leafValues></_>
        <_>
          <internalNodes>
            0 -1 35 -1.4187191845849156e-04</internalNodes>
          <leafValues>
            -4.7729510068893433e-01 4.5733276009559631e-01</leafValues></_>
        <_>
          <internalNodes>
            0 -1 38 -4.5825494453310966e-03</internalNodes>
          <leafValues>
            7.8434395790100098e-01 -2.7760949730873108e-01</leafValues></_>
        <_>
          <internalNodes>
            0 -1 16 -1.5709310770034790e-02</internalNodes>
          <leafValues>
            8.1010520458221436e-01 -2.7649113535881042e-01</leafValues></_>
        <_>
          <internalNodes>
            0 -1 108 -5.4092648497316986e-05</internalNodes>
          <leafValues>
            -5.8190399408340454e-01 3.9615389704704285e-01</leafValues></_>
        <_>
          <internalNodes>
            0 -1 80 3.0141485694912262e-05</internalNodes>
          <leafValues>
            -4.1397842764854431e-01 5.6646811962127686e-01</leafValues></_></weakClassifiers></_>
    <!-- stage 17 -->
    <_>
      <maxWeakCount>6</maxWeakCount>
      <stageThreshold>-5.0370889902114868e-01</stageThreshold>
      <weakClassifiers>
        <_>
          <internalNodes>
            0 -1 17 -3.2044267654418945e-01</internalNodes>
          <leafValues>
            -7.5000000000000000e-01 5.1295334100723267e-01</leafValues></_>
        <_>
          <internalNodes>
            0 -1 39 -4.7153298510238528e-05</internalNodes>
          <leafValues>
            -5.3284889459609985e-01 3.8637000322341919e-01</leafValues></_>
        <_>
          <internalNodes>
            0 -1 74 -5.8826524764299393e-03</internalNodes>
          <leafValues>
            9.4433361291885376e-01 -2.4646662175655365e-01</leafValues></_>
        <_>
          <internalNodes>
            0 -1 77 1.7747914171195589e-05</internalNodes>
          <leafValues>
            -4.2908346652984619e-01 4.8111629486083984e-01</leafValues></_>
        <_>
          <internalNodes>
            0 -1 52 -9.8562310449779034e-04</internalNodes>
          <leafValues>
            -7.7845716476440430e-01 3.0272173881530762e-01</leafValues></_>
        <_>
          <internalNodes>
            0 -1 2 -2.3494963534176350e-04</internalNodes>
          <leafValues>
            -6.7745029926300049e-01 3.6005318164825439e-01</leafValues></_></weakClassifiers></_>
    <!-- stage 18 -->
    <_>
      <maxWeakCount>7</maxWeakCount>
      <stageThreshold>-2.8226932883262634e-01</stageThreshold>
      <weakClassifiers>
        <_>
          <internalNodes>
            0 -1 28 1.2587115634232759e-04</internalNodes>
          <leafValues>
            5.4444444179534912e-01 -5.1111114025115967e-01</leafValues></_>
        <_>
          <internalNodes>
            0 -1 97 4.5149074867367744e-04</internalNodes>
          <leafValues>
            -2.2594325244426727e-01 8.9429903030395508e-01</leafValues></_>
        <_>
          <internalNodes>
            0 -1 4 6.8693188950419426e-05</internalNodes>
          <leafValues>
            3.8286426663398743e-01 -5.6748718023300171e-01</leafValues></_>
        <_>
          <internalNodes>
            0 -1 67 1.6836766735650599e-04</internalNodes>
          <leafValues>
            -4.5843735337257385e-01 5.3784078359603882e-01</leafValues></_>
        <_>
          <internalNodes>
            0 -1 45 4.1717011481523514e-04</internalNodes>
          <leafValues>
            3.9622065424919128e-01 -6.7503064870834351e-01</leafValues></_>
        <_>
          <internalNodes>
            0 -1 0 2.1019845735281706e-04</internalNodes>
          <leafValues>
            -4.6059226989746094e-01 6.3499546051025391e-01</leafValues></_>
        <_>
          <internalNodes>
            0 -1 82 4.3573565781116486e-03</internalNodes>
          <leafValues>
            -3.8585269451141357e-01 6.4537227153778076e-01</leafValues></_></weakClassifiers></_>
    <!-- stage 19 -->
    <_>
      <maxWeakCount>8</maxWeakCount>
      <stageThreshold>-2.1352846920490265e-01</stageThreshold>
      <weakClassifiers>
        <_>
          <internalNodes>
            0 -1 62 3.9041903801262379e-03</internalNodes>
          <leafValues>
            7.2847679257392883e-02 8.6486488580703735e-01</leafValues></_>
        <_>
          <internalNodes>
            0 -1 49 3.7077849265187979e-04</internalNodes>
          <leafValues>
            -2.8516325354576111e-01 6.0159701108932495e-01</leafValues></_>
        <_>
          <internalNodes>
            0 -1 31 1.0985131561756134e-01</internalNodes>
          <leafValues>
            -2.6506069302558899e-01 7.8608876466751099e-01</leafValues></_>
        <_>
          <internalNodes>
            0 -1 59 2.6478891959413886e-04</internalNodes>
          <leafValues>
            3.9654436707496643e-01 -5.3623348474502563e-01</leafValues></_>
        <_>
          <internalNodes>
            0 -1 44 1.2320771347731352e-03</internalNodes>
          <leafValues>
            -2.7101194858551025e-01 7.5147390365600586e-01</leafValues></_>
        <_>
          <internalNodes>
            0 -1 34 -8.5719366325065494e-05</internalNodes>
          <leafValues>
            -6.9735127687454224e-01 3.5807713866233826e-01</leafValues></_>
        <_>
          <internalNodes>
            0 -1 3 6.4765391871333122e-03</internalNodes>
          <leafValues>
            -3.6522305011749268e-01 6.4229559898376465e-01</leafValues></_>
        <_>
          <internalNodes>
            0 -1 107 2.8821403248002753e-05</internalNodes>
          <leafValues>
            3.1412941217422485e-01 -7.0624673366546631e-01</leafValues></_></weakClassifiers></_></stages>
  <features>
    <_>
      <rects>
        <_>
          0 0 12 2 -1.</_>
        <_>
          6 0 6 2 2.</_></rects>
      <tilted>0</tilted></_>
    <_>
      <rects>
        <_>
          0 6 4 8 -1.</_>
        <_>
          1 6 2 8 2.</_></rects>
      <tilted>0</tilted></_>
    <_>
      <rects>
        <_>
          0 8 3 9 -1.</_>
        <_>
          0 11 3 3 3.</_></rects>
      <tilted>0</tilted></_>
    <_>
      <rects>
        <_>
          0 23 31 24 -1.</_>
        <_>
          0 29 31 12 2.</_></rects>
      <tilted>0</tilted></_>
    <_>
      <rects>
        <_>
          0 32 2 6 -1.</_>
        <_>
          0 32 1 3 2.</_>
        <_>
          1 35 1 3 2.</_></rects>
      <tilted>0</tilted></_>
    <_>
      <rects>
        <_>
          0 36 1 6 -1.</_>
        <_>
          0 38 1 2 3.</_></rects>
      <tilted>0</tilted></_>
    <_>
      <rects>
        <_>
          0 41 2 1 -1.</_>
        <_>
          1 41 1 1 2.</_></rects>
      <tilted>0</tilted></_>
    <_>
      <rects>
        <_>
          0 42 1 6 -1.</_>
        <_>
          0 44 1 2 3.</_></rects>
      <tilted>0</tilted></_>
    <_>
      <rects>
        <_>
          0 42 3 6 -1.</_>
        <_>
          0 44 3 2 3.</_></rects>
      <tilted>0</tilted></_>
    <_>
      <rects>
        <_>
          0 44 13 6 -1.</_>
        <_>
          0 46 13 2 3.</_></rects>
      <tilted>0</tilted></_>
    <_>
      <rects>
        <_>
          0 47 44 2 -1.</_>
        <_>
          11 47 22 2 2.</_></rects>
      <tilted>0</tilted></_>
    <_>
      <rects>
        <_>
          1 0 1 9 -1.</_>
        <_>
          1 3 1 3 3.</_></rects>
      <tilted>0</tilted></_>
    <_>
      <rects>
        <_>
          1 2 2 46 -1.</_>
        <_>
          1 2 1 23 2.</_>
        <_>
          2 25 1 23 2.</_></rects>
      <tilted>0</tilted></_>
    <_>
      <rects>
        <_>
          1 9 6 3 -1.</_>
        <_>
          1 10 6 1 3.</_></rects>
      <tilted>0</tilted></_>
    <_>
      <rects>
        <_>
          1 41 3 3 -1.</_>
        <_>
          2 42 1 1 9.</_></rects>
      <tilted>0</tilted></_>
    <_>
      <rects>
        <_>
          2 10 40 4 -1.</_>
        <_>
          2 11 40 2 2.</_></rects>
      <tilted>0</tilted></_>
    <_>
      <rects>
        <_>
          2 13 28 14 -1.</_>
        <_>
          2 13 14 7 2.</_>
        <_>
          16 20 14 7 2.</_></rects>
      <tilted>0</tilted></_>
    <_>
      <rects>
        <_>
          2 14 48 34 -1.</_>
        <_>
          26 14 24 34 2.</_></rects>
      <tilted>0</tilted></_>
    <_>
      <rects>
        <_>
          2 24 5 3 -1.</_>
        <_>
          2 25 5 1 3.</_></rects>
      <tilted>0</tilted></_>
    <_>
      <rects>
        <_>
          2 27 1 15 -1.</_>
        <_>
          2 32 1 5 3.</_></rects>
      <tilted>0</tilted></_>
    <_>
      <rects>
        <_>
          2 41 4 2 -1.</_>
        <_>
          2 41 2 1 2.</_>
        <_>
          4 42 2 1 2.</_></rects>
      <tilted>0</tilted></_>
    <_>
      <rects>
        <_>
          2 48 4 2 -1.</_>
        <_>
          3 48 2 2 2.</_></rects>
      <tilted>0</tilted></_>
    <_>
      <rects>
        <_>
          3 41 4 6 -1.</_>
        <_>
          4 41 2 6 2.</_></rects>
      <tilted>0</tilted></_>
    <_>
      <rects>
        <_>
          4 2 3 3 -1.</_>
        <_>
          5 2 1 3 3.</_></rects>
      <tilted>0</tilted></_>
    <_>
      <rects>
        <_>
          4 20 18 2 -1.</_>
        <_>
          10 20 6 2 3.</_></rects>
      <tilted>0</tilted></_>
    <_>
      <rects>
        <_>
          4 39 1 3 -1.</_>
        <_>
          4 40 1 1 3.</_></rects>
      <tilted>0</tilted></_>
    <_>
      <rects>
        <_>
          4 40 2 3 -1.</_>
        <_>
          3 41 2 1 3.</_></rects>
      <tilted>1</tilted></_>
    <_>
      <rects>
        <_>
          4 41 32 6 -1.</_>
        <_>
          4 43 32 2 3.</_></rects>
      <tilted>0</tilted></_>
    <_>
      <rects>
        <_>
          4 44 2 4 -1.</_>
        <_>
          4 44 1 2 2.</_>
        <_>
          5 46 1 2 2.</_></rects>
      <tilted>0</tilted></_>
    <_>
      <rects>
        <_>
          5 17 16 21 -1.</_>
        <_>
          9 17 8 21 2.</_></rects>
      <tilted>0</tilted></_>
    <_>
      <rects>
        <_>
          6 1 4 3 -1.</_>
        <_>
          7 1 2 3 2.</_></rects>
      <tilted>0</tilted></_>
    <_>
      <rects>
        <_>
          6 8 40 25 -1.</_>
        <_>
          16 8 20 25 2.</_></rects>
      <tilted>0</tilted></_>
    <_>
      <rects>
        <_>
          6 41 3 1 -1.</_>
        <_>
          7 42 1 1 3.</_></rects>
      <tilted>1</tilted></_>
    <_>
      <rects>
        <_>
          6 45 4 4 -1.</_>
        <_>
          7 45 2 4 2.</_></rects>
      <tilted>0</tilted></_>
    <_>
      <rects>
        <_>
          6 47 4 3 -1.</_>
        <_>
          7 47 2 3 2.</_></rects>
      <tilted>0</tilted></_>
    <_>
      <rects>
        <_>
          7 42 6 6 -1.</_>
        <_>
          9 44 2 2 9.</_></rects>
      <tilted>0</tilted></_>
    <_>
      <rects>
        <_>
          7 48 3 2 -1.</_>
        <_>
          8 48 1 2 3.</_></rects>
      <tilted>0</tilted></_>
    <_>
      <rects>
        <_>
          7 48 24 2 -1.</_>
        <_>
          15 48 8 2 3.</_></rects>
      <tilted>0</tilted></_>
    <_>
      <rects>
        <_>
          8 29 22 6 -1.</_>
        <_>
          8 32 22 3 2.</_></rects>
      <tilted>0</tilted></_>
    <_>
      <rects>
        <_>
          8 44 4 2 -1.</_>
        <_>
          9 45 2 2 2.</_></rects>
      <tilted>1</tilted></_>
    <_>
      <rects>
        <_>
          8 47 4 3 -1.</_>
        <_>
          9 47 2 3 2.</_></rects>
      <tilted>0</tilted></_>
    <_>
      <rects>
        <_>
          8 48 6 2 -1.</_>
        <_>
          10 48 2 2 3.</_></rects>
      <tilted>0</tilted></_>
    <_>
      <rects>
        <_>
          9 9 12 2 -1.</_>
        <_>
          9 9 6 2 2.</_></rects>
      <tilted>1</tilted></_>
    <_>
      <rects>
        <_>
          9 16 3 6 -1.</_>
        <_>
          9 16 3 3 2.</_></rects>
      <tilted>1</tilted></_>
    <_>
      <rects>
        <_>
          9 19 4 5 -1.</_>
        <_>
          9 19 2 5 2.</_></rects>
      <tilted>1</tilted></_>
    <_>
      <rects>
        <_>
          9 40 4 6 -1.</_>
        <_>
          10 41 2 6 2.</_></rects>
      <tilted>1</tilted></_>
    <_>
      <rects>
        <_>
          9 48 26 2 -1.</_>
        <_>
          22 48 13 2 2.</_></rects>
      <tilted>0</tilted></_>
    <_>
      <rects>
        <_>
          10 4 38 4 -1.</_>
        <_>
          9 5 38 2 2.</_></rects>
      <tilted>1</tilted></_>
    <_>
      <rects>
        <_>
          10 46 2 4 -1.</_>
        <_>
          10 46 1 2 2.</_>
        <_>
          11 48 1 2 2.</_></rects>
      <tilted>0</tilted></_>
    <_>
      <rects>
        <_>
          12 24 10 4 -1.</_>
        <_>
          11 25 10 2 2.</_></rects>
      <tilted>1</tilted></_>
    <_>
      <rects>
        <_>
          14 7 4 17 -1.</_>
        <_>
          15 7 2 17 2.</_></rects>
      <tilted>0</tilted></_>
    <_>
      <rects>
        <_>
          14 48 4 2 -1.</_>
        <_>
          15 48 2 2 2.</_></rects>
      <tilted>0</tilted></_>
    <_>
      <rects>
        <_>
          15 44 6 5 -1.</_>
        <_>
          17 44 2 5 3.</_></rects>
      <tilted>0</tilted></_>
    <_>
      <rects>
        <_>
          15 49 12 1 -1.</_>
        <_>
          19 49 4 1 3.</_></rects>
      <tilted>0</tilted></_>
    <_>
      <rects>
        <_>
          16 2 4 7 -1.</_>
        <_>
          17 2 2 7 2.</_></rects>
      <tilted>0</tilted></_>
    <_>
      <rects>
        <_>
          17 33 3 15 -1.</_>
        <_>
          18 38 1 5 9.</_></rects>
      <tilted>0</tilted></_>
    <_>
      <rects>
        <_>
          17 39 2 2 -1.</_>
        <_>
          17 40 2 1 2.</_></rects>
      <tilted>0</tilted></_>
    <_>
      <rects>
        <_>
          18 12 25 4 -1.</_>
        <_>
          18 13 25 2 2.</_></rects>
      <tilted>0</tilted></_>
    <_>
      <rects>
        <_>
          18 26 8 21 -1.</_>
        <_>
          20 26 4 21 2.</_></rects>
      <tilted>0</tilted></_>
    <_>
      <rects>
        <_>
          19 12 4 3 -1.</_>
        <_>
          20 13 2 3 2.</_></rects>
      <tilted>1</tilted></_>
    <_>
      <rects>
        <_>
          19 40 15 6 -1.</_>
        <_>
          19 42 15 2 3.</_></rects>
      <tilted>0</tilted></_>
    <_>
      <rects>
        <_>
          20 2 28 2 -1.</_>
        <_>
          20 3 28 1 2.</_></rects>
      <tilted>0</tilted></_>
    <_>
      <rects>
        <_>
          20 16 17 9 -1.</_>
        <_>
          17 19 17 3 3.</_></rects>
      <tilted>1</tilted></_>
    <_>
      <rects>
        <_>
          20 32 3 3 -1.</_>
        <_>
          19 33 3 1 3.</_></rects>
      <tilted>1</tilted></_>
    <_>
      <rects>
        <_>
          21 35 1 3 -1.</_>
        <_>
          21 36 1 1 3.</_></rects>
      <tilted>0</tilted></_>
    <_>
      <rects>
        <_>
          22 24 15 5 -1.</_>
        <_>
          27 24 5 5 3.</_></rects>
      <tilted>0</tilted></_>
    <_>
      <rects>
        <_>
          22 44 6 5 -1.</_>
        <_>
          24 44 2 5 3.</_></rects>
      <tilted>0</tilted></_>
    <_>
      <rects>
        <_>
          23 22 2 4 -1.</_>
        <_>
          23 22 2 2 2.</_></rects>
      <tilted>1</tilted></_>
    <_>
      <rects>
        <_>
          24 3 3 8 -1.</_>
        <_>
          25 3 1 8 3.</_></rects>
      <tilted>0</tilted></_>
    <_>
      <rects>
        <_>
          25 3 3 4 -1.</_>
        <_>
          25 3 3 2 2.</_></rects>
      <tilted>1</tilted></_>
    <_>
      <rects>
        <_>
          25 12 24 8 -1.</_>
        <_>
          25 12 12 8 2.</_></rects>
      <tilted>1</tilted></_>
    <_>
      <rects>
        <_>
          25 27 3 13 -1.</_>
        <_>
          26 28 1 13 3.</_></rects>
      <tilted>1</tilted></_>
    <_>
      <rects>
        <_>
          25 40 10 2 -1.</_>
        <_>
          25 40 5 1 2.</_>
        <_>
          30 41 5 1 2.</_></rects>
      <tilted>0</tilted></_>
    <_>
      <rects>
        <_>
          26 0 3 1 -1.</_>
        <_>
          27 1 1 1 3.</_></rects>
      <tilted>1</tilted></_>
    <_>
      <rects>
        <_>
          28 20 16 2 -1.</_>
        <_>
          36 20 8 2 2.</_></rects>
      <tilted>0</tilted></_>
    <_>
      <rects>
        <_>
          29 40 12 4 -1.</_>
        <_>
          29 40 6 2 2.</_>
        <_>
          35 42 6 2 2.</_></rects>
      <tilted>0</tilted></_>
    <_>
      <rects>
        <_>
          29 41 4 1 -1.</_>
        <_>
          30 41 2 1 2.</_></rects>
      <tilted>0</tilted></_>
    <_>
      <rects>
        <_>
          31 24 2 4 -1.</_>
        <_>
          30 25 2 2 2.</_></rects>
      <tilted>1</tilted></_>
    <_>
      <rects>
        <_>
          32 12 2 7 -1.</_>
        <_>
          32 12 1 7 2.</_></rects>
      <tilted>1</tilted></_>
    <_>
      <rects>
        <_>
          32 27 12 1 -1.</_>
        <_>
          35 27 6 1 2.</_></rects>
      <tilted>0</tilted></_>
    <_>
      <rects>
        <_>
          32 28 9 2 -1.</_>
        <_>
          35 28 3 2 3.</_></rects>
      <tilted>0</tilted></_>
    <_>
      <rects>
        <_>
          34 20 3 8 -1.</_>
        <_>
          32 22 3 4 2.</_></rects>
      <tilted>1</tilted></_>
    <_>
      <rects>
        <_>
          34 21 13 18 -1.</_>
        <_>
          34 27 13 6 3.</_></rects>
      <tilted>0</tilted></_>
    <_>
      <rects>
        <_>
          34 39 2 10 -1.</_>
        <_>
          34 39 1 5 2.</_>
        <_>
          35 44 1 5 2.</_></rects>
      <tilted>0</tilted></_>
    <_>
      <rects>
        <_>
          34 46 15 3 -1.</_>
        <_>
          39 47 5 1 9.</_></rects>
      <tilted>0</tilted></_>
    <_>
      <rects>
        <_>
          35 25 10 6 -1.</_>
        <_>
          35 25 5 3 2.</_>
        <_>
          40 28 5 3 2.</_></rects>
      <tilted>0</tilted></_>
    <_>
      <rects>
        <_>
          35 46 6 3 -1.</_>
        <_>
          38 46 3 3 2.</_></rects>
      <tilted>0</tilted></_>
    <_>
      <rects>
        <_>
          35 49 6 1 -1.</_>
        <_>
          37 49 2 1 3.</_></rects>
      <tilted>0</tilted></_>
    <_>
      <rects>
        <_>
          36 12 6 3 -1.</_>
        <_>
          38 12 2 3 3.</_></rects>
      <tilted>0</tilted></_>
    <_>
      <rects>
        <_>
          36 13 3 18 -1.</_>
        <_>
          30 19 3 6 3.</_></rects>
      <tilted>1</tilted></_>
    <_>
      <rects>
        <_>
          36 39 3 11 -1.</_>
        <_>
          37 39 1 11 3.</_></rects>
      <tilted>0</tilted></_>
    <_>
      <rects>
        <_>
          37 1 12 1 -1.</_>
        <_>
          43 1 6 1 2.</_></rects>
      <tilted>0</tilted></_>
    <_>
      <rects>
        <_>
          37 16 4 1 -1.</_>
        <_>
          38 16 2 1 2.</_></rects>
      <tilted>0</tilted></_>
    <_>
      <rects>
        <_>
          37 46 9 3 -1.</_>
        <_>
          40 46 3 3 3.</_></rects>
      <tilted>0</tilted></_>
    <_>
      <rects>
        <_>
          38 6 3 43 -1.</_>
        <_>
          39 6 1 43 3.</_></rects>
      <tilted>0</tilted></_>
    <_>
      <rects>
        <_>
          39 6 3 3 -1.</_>
        <_>
          39 7 3 1 3.</_></rects>
      <tilted>0</tilted></_>
    <_>
      <rects>
        <_>
          39 39 3 11 -1.</_>
        <_>
          40 39 1 11 3.</_></rects>
      <tilted>0</tilted></_>
    <_>
      <rects>
        <_>
          40 15 8 8 -1.</_>
        <_>
          40 15 4 4 2.</_>
        <_>
          44 19 4 4 2.</_></rects>
      <tilted>0</tilted></_>
    <_>
      <rects>
        <_>
          41 13 3 2 -1.</_>
        <_>
          42 13 1 2 3.</_></rects>
      <tilted>0</tilted></_>
    <_>
      <rects>
        <_>
          41 26 2 4 -1.</_>
        <_>
          40 27 2 2 2.</_></rects>
      <tilted>1</tilted></_>
    <_>
      <rects>
        <_>
          41 41 4 9 -1.</_>
        <_>
          42 41 2 9 2.</_></rects>
      <tilted>0</tilted></_>
    <_>
      <rects>
        <_>
          42 30 4 14 -1.</_>
        <_>
          43 30 2 14 2.</_></rects>
      <tilted>0</tilted></_>
    <_>
      <rects>
        <_>
          43 4 2 3 -1.</_>
        <_>
          43 4 1 3 2.</_></rects>
      <tilted>1</tilted></_>
    <_>
      <rects>
        <_>
          43 7 2 3 -1.</_>
        <_>
          43 8 2 1 3.</_></rects>
      <tilted>0</tilted></_>
    <_>
      <rects>
        <_>
          44 14 2 4 -1.</_>
        <_>
          44 15 2 2 2.</_></rects>
      <tilted>0</tilted></_>
    <_>
      <rects>
        <_>
          45 0 4 7 -1.</_>
        <_>
          47 0 2 7 2.</_></rects>
      <tilted>0</tilted></_>
    <_>
      <rects>
        <_>
          45 4 4 3 -1.</_>
        <_>
          45 5 4 1 3.</_></rects>
      <tilted>0</tilted></_>
    <_>
      <rects>
        <_>
          45 13 1 3 -1.</_>
        <_>
          45 14 1 1 3.</_></rects>
      <tilted>0</tilted></_>
    <_>
      <rects>
        <_>
          45 14 4 1 -1.</_>
        <_>
          46 15 2 1 2.</_></rects>
      <tilted>1</tilted></_>
    <_>
      <rects>
        <_>
          46 2 4 32 -1.</_>
        <_>
          46 2 2 16 2.</_>
        <_>
          48 18 2 16 2.</_></rects>
      <tilted>0</tilted></_>
    <_>
      <rects>
        <_>
          46 15 4 8 -1.</_>
        <_>
          46 15 2 4 2.</_>
        <_>
          48 19 2 4 2.</_></rects>
      <tilted>0</tilted></_>
    <_>
      <rects>
        <_>
          46 28 1 4 -1.</_>
        <_>
          46 29 1 2 2.</_></rects>
      <tilted>0</tilted></_>
    <_>
      <rects>
        <_>
          46 35 1 3 -1.</_>
        <_>
          46 36 1 1 3.</_></rects>
      <tilted>0</tilted></_>
    <_>
      <rects>
        <_>
          47 13 3 11 -1.</_>
        <_>
          48 13 1 11 3.</_></rects>
      <tilted>0</tilted></_>
    <_>
      <rects>
        <_>
          47 17 3 3 -1.</_>
        <_>
          47 18 3 1 3.</_></rects>
      <tilted>0</tilted></_>
    <_>
      <rects>
        <_>
          47 32 3 12 -1.</_>
        <_>
          47 35 3 6 2.</_></rects>
      <tilted>0</tilted></_>
    <_>
      <rects>
        <_>
          48 5 2 4 -1.</_>
        <_>
          48 6 2 2 2.</_></rects>
      <tilted>0</tilted></_>
    <_>
      <rects>
        <_>
          49 6 1 8 -1.</_>
        <_>
          49 8 1 4 2.</_></rects>
      <tilted>0</tilted></_>
    <_>
      <rects>
        <_>
          49 10 1 2 -1.</_>
        <_>
          49 11 1 1 2.</_></rects>
      <tilted>0</tilted></_>
    <_>
      <rects>
        <_>
          49 11 1 6 -1.</_>
        <_>
          49 13 1 2 3.</_></rects>
      <tilted>0</tilted></_>
    <_>
      <rects>
        <_>
          49 11 1 39 -1.</_>
        <_>
          49 24 1 13 3.</_></rects>
      <tilted>0</tilted></_>
    <_>
      <rects>
        <_>
          49 33 1 3 -1.</_>
        <_>
          49 34 1 1 3.</_></rects>
      <tilted>0</tilted></_></features></cascade>
</opencv_storage>
