<?xml version="1.0"?>
<opencv_storage>
<stage11>
  <maxWeakCount>8</maxWeakCount>
  <stageThreshold>-4.3346217274665833e-01</stageThreshold>
  <weakClassifiers>
    <_>
      <internalNodes>
        0 -1 4730867 -7.2475027991458774e-04</internalNodes>
      <leafValues>
        -7.4358975887298584e-01 5.5913978815078735e-01</leafValues></_>
    <_>
      <internalNodes>
        0 -1 4486609 -8.7691354565322399e-05</internalNodes>
      <leafValues>
        -6.0580658912658691e-01 3.4516468644142151e-01</leafValues></_>
    <_>
      <internalNodes>
        0 -1 2993363 -4.6052111429162323e-05</internalNodes>
      <leafValues>
        -4.6677488088607788e-01 5.0883847475051880e-01</leafValues></_>
    <_>
      <internalNodes>
        0 -1 4633009 -1.2294501066207886e-03</internalNodes>
      <leafValues>
        -7.2332715988159180e-01 3.1153661012649536e-01</leafValues></_>
    <_>
      <internalNodes>
        0 -1 4516862 3.0435772714554332e-05</internalNodes>
      <leafValues>
        4.7642719745635986e-01 -4.6042549610137939e-01</leafValues></_>
    <_>
      <internalNodes>
        0 -1 2878430 -3.5013366868952289e-05</internalNodes>
      <leafValues>
        -5.1816755533218384e-01 5.2798014879226685e-01</leafValues></_>
    <_>
      <internalNodes>
        0 -1 4552397 2.8402463067322969e-04</internalNodes>
      <leafValues>
        4.4050413370132446e-01 -5.9089326858520508e-01</leafValues></_>
    <_>
      <internalNodes>
        0 -1 1450720 -2.0315796136856079e-03</internalNodes>
      <leafValues>
        8.3658617734909058e-01 -3.1795501708984375e-01</leafValues></_></weakClassifiers></stage11>
</opencv_storage>
