<?xml version="1.0"?>
<opencv_storage>
<stage12>
  <maxWeakCount>15</maxWeakCount>
  <stageThreshold>-1.4442392587661743e+00</stageThreshold>
  <weakClassifiers>
    <_>
      <internalNodes>
        0 -1 4499484 2.0356750115752220e-02</internalNodes>
      <leafValues>
        -1.9500780105590820e-01 5.8139532804489136e-01</leafValues></_>
    <_>
      <internalNodes>
        0 -1 2593610 9.3843787908554077e-04</internalNodes>
      <leafValues>
        -5.2386975288391113e-01 2.5080910325050354e-01</leafValues></_>
    <_>
      <internalNodes>
        0 -1 4470192 -8.5317138582468033e-03</internalNodes>
      <leafValues>
        7.3166865110397339e-01 -1.7291389405727386e-01</leafValues></_>
    <_>
      <internalNodes>
        0 -1 3712393 8.3090700209140778e-03</internalNodes>
      <leafValues>
        -2.0183104276657104e-01 8.1238663196563721e-01</leafValues></_>
    <_>
      <internalNodes>
        0 -1 4327672 2.1133402362465858e-02</internalNodes>
      <leafValues>
        -1.6488552093505859e-01 6.7448985576629639e-01</leafValues></_>
    <_>
      <internalNodes>
        0 -1 3580477 2.9482587706297636e-03</internalNodes>
      <leafValues>
        -2.3779173195362091e-01 6.3656741380691528e-01</leafValues></_>
    <_>
      <internalNodes>
        0 -1 3603510 1.6906287521123886e-02</internalNodes>
      <leafValues>
        2.1420451998710632e-01 -8.7565904855728149e-01</leafValues></_>
    <_>
      <internalNodes>
        0 -1 4402591 1.9131563603878021e-02</internalNodes>
      <leafValues>
        -2.2066101431846619e-01 7.0155006647109985e-01</leafValues></_>
    <_>
      <internalNodes>
        0 -1 1733301 -1.2478391639888287e-02</internalNodes>
      <leafValues>
        6.9984513521194458e-01 -2.0426960289478302e-01</leafValues></_>
    <_>
      <internalNodes>
        0 -1 2596531 4.9550496041774750e-03</internalNodes>
      <leafValues>
        2.2735837101936340e-01 -7.0579427480697632e-01</leafValues></_>
    <_>
      <internalNodes>
        0 -1 4153466 1.4083392918109894e-02</internalNodes>
      <leafValues>
        -2.6791658997535706e-01 5.4609870910644531e-01</leafValues></_>
    <_>
      <internalNodes>
        0 -1 3102872 -2.3508509621024132e-03</internalNodes>
      <leafValues>
        -7.7220201492309570e-01 2.1986515820026398e-01</leafValues></_>
    <_>
      <internalNodes>
        0 -1 2755882 -5.3443061187863350e-03</internalNodes>
      <leafValues>
        6.6394305229187012e-01 -2.3024751245975494e-01</leafValues></_>
    <_>
      <internalNodes>
        0 -1 2462580 -5.0331074744462967e-03</internalNodes>
      <leafValues>
        -9.2684262990951538e-01 1.4663545787334442e-01</leafValues></_>
    <_>
      <internalNodes>
        0 -1 2706513 -1.4602085866499692e-04</internalNodes>
      <leafValues>
        -7.0726746320724487e-01 1.6888259351253510e-01</leafValues></_></weakClassifiers></stage12>
</opencv_storage>
