<?xml version="1.0"?>
<opencv_storage>
<stage3>
  <maxWeakCount>9</maxWeakCount>
  <stageThreshold>-1.1525242328643799e+00</stageThreshold>
  <weakClassifiers>
    <_>
      <internalNodes>
        0 -1 4317655 -8.8365320116281509e-03</internalNodes>
      <leafValues>
        6.3929617404937744e-01 -4.5559844374656677e-01</leafValues></_>
    <_>
      <internalNodes>
        0 -1 2308237 1.4105521142482758e-02</internalNodes>
      <leafValues>
        -6.7991131544113159e-01 3.9623582363128662e-01</leafValues></_>
    <_>
      <internalNodes>
        0 -1 4106013 1.0282844305038452e-02</internalNodes>
      <leafValues>
        -4.1808643937110901e-01 5.7489162683486938e-01</leafValues></_>
    <_>
      <internalNodes>
        0 -1 2948281 1.0200656251981854e-03</internalNodes>
      <leafValues>
        -8.6615908145904541e-01 2.2853399813175201e-01</leafValues></_>
    <_>
      <internalNodes>
        0 -1 3629061 -1.0458275675773621e-02</internalNodes>
      <leafValues>
        2.8379708528518677e-01 -7.0332813262939453e-01</leafValues></_>
    <_>
      <internalNodes>
        0 -1 2583159 2.8341589495539665e-03</internalNodes>
      <leafValues>
        1.9775311648845673e-01 -8.5629278421401978e-01</leafValues></_>
    <_>
      <internalNodes>
        0 -1 4368620 7.5683901086449623e-03</internalNodes>
      <leafValues>
        -2.8055110573768616e-01 8.4124499559402466e-01</leafValues></_>
    <_>
      <internalNodes>
        0 -1 3886133 -7.9263094812631607e-03</internalNodes>
      <leafValues>
        7.1128523349761963e-01 -3.1257095932960510e-01</leafValues></_>
    <_>
      <internalNodes>
        0 -1 3094009 -1.9854325801134109e-02</internalNodes>
      <leafValues>
        -7.7798795700073242e-01 2.7825704216957092e-01</leafValues></_></weakClassifiers></stage3>
</opencv_storage>
