<?xml version="1.0"?>
<opencv_storage>
<stage15>
  <maxWeakCount>14</maxWeakCount>
  <stageThreshold>-9.6489405632019043e-01</stageThreshold>
  <weakClassifiers>
    <_>
      <internalNodes>
        0 -1 2633977 -3.4149669110774994e-02</internalNodes>
      <leafValues>
        6.0451978445053101e-01 -1.8086697161197662e-01</leafValues></_>
    <_>
      <internalNodes>
        0 -1 3886323 7.5808260589838028e-03</internalNodes>
      <leafValues>
        -1.8956466019153595e-01 5.9824198484420776e-01</leafValues></_>
    <_>
      <internalNodes>
        0 -1 4669768 5.9866262599825859e-03</internalNodes>
      <leafValues>
        -1.6325163841247559e-01 8.0694812536239624e-01</leafValues></_>
    <_>
      <internalNodes>
        0 -1 4578869 1.4371595345437527e-02</internalNodes>
      <leafValues>
        -1.6855171322822571e-01 8.5074615478515625e-01</leafValues></_>
    <_>
      <internalNodes>
        0 -1 2459797 -8.3827171474695206e-03</internalNodes>
      <leafValues>
        -9.0462422370910645e-01 1.9267499446868896e-01</leafValues></_>
    <_>
      <internalNodes>
        0 -1 2696076 2.3604133166372776e-03</internalNodes>
      <leafValues>
        -6.5716606378555298e-01 2.0942342281341553e-01</leafValues></_>
    <_>
      <internalNodes>
        0 -1 4574485 -4.8661916516721249e-03</internalNodes>
      <leafValues>
        5.4550427198410034e-01 -3.2070055603981018e-01</leafValues></_>
    <_>
      <internalNodes>
        0 -1 4647770 -8.0633666366338730e-03</internalNodes>
      <leafValues>
        5.4284590482711792e-01 -2.8399613499641418e-01</leafValues></_>
    <_>
      <internalNodes>
        0 -1 4516886 1.1735859327018261e-02</internalNodes>
      <leafValues>
        -9.1522373259067535e-02 9.1312325000762939e-01</leafValues></_>
    <_>
      <internalNodes>
        0 -1 2798672 -6.9844850804656744e-04</internalNodes>
      <leafValues>
        -7.6879197359085083e-01 1.9351540505886078e-01</leafValues></_>
    <_>
      <internalNodes>
        0 -1 4017193 3.5129025578498840e-02</internalNodes>
      <leafValues>
        1.4191961288452148e-01 -7.1382093429565430e-01</leafValues></_>
    <_>
      <internalNodes>
        0 -1 4389573 1.3789141550660133e-02</internalNodes>
      <leafValues>
        -1.5585868060588837e-01 9.7827994823455811e-01</leafValues></_>
    <_>
      <internalNodes>
        0 -1 2248779 -7.0837698876857758e-04</internalNodes>
      <leafValues>
        -7.1795618534088135e-01 2.4041196703910828e-01</leafValues></_>
    <_>
      <internalNodes>
        0 -1 4013998 -7.1217417716979980e-03</internalNodes>
      <leafValues>
        6.0025084018707275e-01 -2.1554532647132874e-01</leafValues></_></weakClassifiers></stage15>
</opencv_storage>
