<?xml version="1.0"?>
<opencv_storage>
<stage14>
  <maxWeakCount>13</maxWeakCount>
  <stageThreshold>-1.3008636236190796e+00</stageThreshold>
  <weakClassifiers>
    <_>
      <internalNodes>
        0 -1 3517788 -3.0804567039012909e-02</internalNodes>
      <leafValues>
        5.7857143878936768e-01 -1.9374999403953552e-01</leafValues></_>
    <_>
      <internalNodes>
        0 -1 2731955 8.3934562280774117e-04</internalNodes>
      <leafValues>
        2.2206109762191772e-01 -6.5866696834564209e-01</leafValues></_>
    <_>
      <internalNodes>
        0 -1 4110357 -1.2600675225257874e-02</internalNodes>
      <leafValues>
        6.1965245008468628e-01 -2.2880192101001740e-01</leafValues></_>
    <_>
      <internalNodes>
        0 -1 4281259 9.7224032506346703e-03</internalNodes>
      <leafValues>
        -2.8275161981582642e-01 7.9130721092224121e-01</leafValues></_>
    <_>
      <internalNodes>
        0 -1 2712415 2.7581735048443079e-03</internalNodes>
      <leafValues>
        2.8837767243385315e-01 -8.5300952196121216e-01</leafValues></_>
    <_>
      <internalNodes>
        0 -1 3738434 -4.2662075720727444e-03</internalNodes>
      <leafValues>
        -6.2284213304519653e-01 1.7576499283313751e-01</leafValues></_>
    <_>
      <internalNodes>
        0 -1 3037615 2.7835249900817871e-02</internalNodes>
      <leafValues>
        2.1536211669445038e-01 -6.4518129825592041e-01</leafValues></_>
    <_>
      <internalNodes>
        0 -1 4521882 -2.6449614670127630e-03</internalNodes>
      <leafValues>
        5.8449494838714600e-01 -2.5261121988296509e-01</leafValues></_>
    <_>
      <internalNodes>
        0 -1 3815288 8.4366239607334137e-03</internalNodes>
      <leafValues>
        -2.2169910371303558e-01 5.8010023832321167e-01</leafValues></_>
    <_>
      <internalNodes>
        0 -1 4363365 1.8009262159466743e-02</internalNodes>
      <leafValues>
        -1.5924696624279022e-01 8.5118317604064941e-01</leafValues></_>
    <_>
      <internalNodes>
        0 -1 3492723 9.1221686452627182e-03</internalNodes>
      <leafValues>
        -2.1288777887821198e-01 6.0497748851776123e-01</leafValues></_>
    <_>
      <internalNodes>
        0 -1 4540349 -6.4683305099606514e-03</internalNodes>
      <leafValues>
        7.5914078950881958e-01 -1.7688404023647308e-01</leafValues></_>
    <_>
      <internalNodes>
        0 -1 2716944 5.3349384106695652e-03</internalNodes>
      <leafValues>
        1.7492353916168213e-01 -9.4744396209716797e-01</leafValues></_></weakClassifiers></stage14>
</opencv_storage>
