<?xml version="1.0"?>
<opencv_storage>
<stage10>
  <maxWeakCount>12</maxWeakCount>
  <stageThreshold>-1.4871155023574829e+00</stageThreshold>
  <weakClassifiers>
    <_>
      <internalNodes>
        0 -1 2675736 4.5460676774382591e-03</internalNodes>
      <leafValues>
        -4.5244956016540527e-01 4.1852286458015442e-01</leafValues></_>
    <_>
      <internalNodes>
        0 -1 4603103 8.2557164132595062e-03</internalNodes>
      <leafValues>
        -4.2378857731819153e-01 3.6555108428001404e-01</leafValues></_>
    <_>
      <internalNodes>
        0 -1 2446409 -3.4883324988186359e-03</internalNodes>
      <leafValues>
        1.9403128325939178e-01 -6.9262993335723877e-01</leafValues></_>
    <_>
      <internalNodes>
        0 -1 3934080 9.1232076287269592e-02</internalNodes>
      <leafValues>
        -1.7738221585750580e-01 9.0607237815856934e-01</leafValues></_>
    <_>
      <internalNodes>
        0 -1 4071316 1.6182161867618561e-02</internalNodes>
      <leafValues>
        -1.8181507289409637e-01 8.4011459350585938e-01</leafValues></_>
    <_>
      <internalNodes>
        0 -1 3907519 2.5355938822031021e-02</internalNodes>
      <leafValues>
        2.4502947926521301e-01 -7.5674974918365479e-01</leafValues></_>
    <_>
      <internalNodes>
        0 -1 4667927 -3.6747027188539505e-03</internalNodes>
      <leafValues>
        5.1380646228790283e-01 -3.1313100457191467e-01</leafValues></_>
    <_>
      <internalNodes>
        0 -1 3783377 -1.4189902693033218e-02</internalNodes>
      <leafValues>
        8.2266640663146973e-01 -1.4269523322582245e-01</leafValues></_>
    <_>
      <internalNodes>
        0 -1 3500589 4.3552080169320107e-03</internalNodes>
      <leafValues>
        -1.5376712381839752e-01 8.6546736955642700e-01</leafValues></_>
    <_>
      <internalNodes>
        0 -1 4518024 1.3793616381008178e-04</internalNodes>
      <leafValues>
        -4.9246087670326233e-01 3.4691721200942993e-01</leafValues></_>
    <_>
      <internalNodes>
        0 -1 3920047 8.4761809557676315e-03</internalNodes>
      <leafValues>
        -2.2342407703399658e-01 6.1430907249450684e-01</leafValues></_>
    <_>
      <internalNodes>
        0 -1 4986267 -5.8988519012928009e-03</internalNodes>
      <leafValues>
        6.9141829013824463e-01 -2.3623491823673248e-01</leafValues></_></weakClassifiers></stage10>
</opencv_storage>
