<?xml version="1.0"?>
<opencv_storage>
<stage5>
  <maxWeakCount>13</maxWeakCount>
  <stageThreshold>-1.4405443668365479e+00</stageThreshold>
  <weakClassifiers>
    <_>
      <internalNodes>
        0 -1 4277373 1.2952256947755814e-02</internalNodes>
      <leafValues>
        -2.1923620998859406e-01 7.2008115053176880e-01</leafValues></_>
    <_>
      <internalNodes>
        0 -1 4469412 1.3594727963209152e-02</internalNodes>
      <leafValues>
        -3.4714138507843018e-01 5.4820877313613892e-01</leafValues></_>
    <_>
      <internalNodes>
        0 -1 3848960 -7.1960184723138809e-03</internalNodes>
      <leafValues>
        5.9941667318344116e-01 -2.9316869378089905e-01</leafValues></_>
    <_>
      <internalNodes>
        0 -1 4163051 9.7589269280433655e-03</internalNodes>
      <leafValues>
        -2.2087515890598297e-01 7.6691412925720215e-01</leafValues></_>
    <_>
      <internalNodes>
        0 -1 2712392 -1.1817186605185270e-03</internalNodes>
      <leafValues>
        2.9125264286994934e-01 -6.3110435009002686e-01</leafValues></_>
    <_>
      <internalNodes>
        0 -1 4907287 1.0174378752708435e-02</internalNodes>
      <leafValues>
        -2.3543195426464081e-01 7.4044167995452881e-01</leafValues></_>
    <_>
      <internalNodes>
        0 -1 3216670 9.8611107096076012e-03</internalNodes>
      <leafValues>
        2.3642493784427643e-01 -8.6348837614059448e-01</leafValues></_>
    <_>
      <internalNodes>
        0 -1 4352128 1.0561171919107437e-02</internalNodes>
      <leafValues>
        -2.5497311353683472e-01 7.8290677070617676e-01</leafValues></_>
    <_>
      <internalNodes>
        0 -1 3818745 1.3030029833316803e-02</internalNodes>
      <leafValues>
        2.7300867438316345e-01 -7.7616369724273682e-01</leafValues></_>
    <_>
      <internalNodes>
        0 -1 3164457 -1.3325659558176994e-02</internalNodes>
      <leafValues>
        6.9009488821029663e-01 -3.1629541516304016e-01</leafValues></_>
    <_>
      <internalNodes>
        0 -1 2561354 1.1458314955234528e-02</internalNodes>
      <leafValues>
        2.7961933612823486e-01 -8.0193454027175903e-01</leafValues></_>
    <_>
      <internalNodes>
        0 -1 4373897 -3.8048150017857552e-03</internalNodes>
      <leafValues>
        6.9094431400299072e-01 -2.5698852539062500e-01</leafValues></_>
    <_>
      <internalNodes>
        0 -1 4115996 -4.1178464889526367e-03</internalNodes>
      <leafValues>
        6.9374144077301025e-01 -2.2291725873947144e-01</leafValues></_></weakClassifiers></stage5>
</opencv_storage>
