<?xml version="1.0"?>
<opencv_storage>
<stage6>
  <maxWeakCount>15</maxWeakCount>
  <stageThreshold>-3.7530082464218140e-01</stageThreshold>
  <weakClassifiers>
    <_>
      <internalNodes>
        0 -1 19337 -1.5132706612348557e-03</internalNodes>
      <leafValues>
        -2.3809523880481720e-01 5.0724637508392334e-01</leafValues></_>
    <_>
      <internalNodes>
        0 -1 18995 1.9099442288279533e-03</internalNodes>
      <leafValues>
        2.5053325295448303e-01 -4.8504507541656494e-01</leafValues></_>
    <_>
      <internalNodes>
        0 -1 9929 1.1238299775868654e-03</internalNodes>
      <leafValues>
        1.9383740425109863e-01 -4.9608525633811951e-01</leafValues></_>
    <_>
      <internalNodes>
        0 -1 124790 -6.0023041442036629e-04</internalNodes>
      <leafValues>
        -4.9302515387535095e-01 2.0942212641239166e-01</leafValues></_>
    <_>
      <internalNodes>
        0 -1 14730 8.0961383879184723e-02</internalNodes>
      <leafValues>
        -1.7100171744823456e-01 6.5785747766494751e-01</leafValues></_>
    <_>
      <internalNodes>
        0 -1 9927 -8.6580417701043189e-05</internalNodes>
      <leafValues>
        -3.7543949484825134e-01 2.7241501212120056e-01</leafValues></_>
    <_>
      <internalNodes>
        0 -1 14137 -3.7558379117399454e-03</internalNodes>
      <leafValues>
        -4.4292461872100830e-01 2.3612469434738159e-01</leafValues></_>
    <_>
      <internalNodes>
        0 -1 87077 6.0641802847385406e-03</internalNodes>
      <leafValues>
        1.9776004552841187e-01 -5.6586772203445435e-01</leafValues></_>
    <_>
      <internalNodes>
        0 -1 47253 5.5417569819837809e-04</internalNodes>
      <leafValues>
        -3.1117069721221924e-01 3.2852444052696228e-01</leafValues></_>
    <_>
      <internalNodes>
        0 -1 9552 7.7018199954181910e-04</internalNodes>
      <leafValues>
        2.0832182466983795e-01 -4.8012718558311462e-01</leafValues></_>
    <_>
      <internalNodes>
        0 -1 19369 -6.8723678123205900e-04</internalNodes>
      <leafValues>
        -4.5575338602066040e-01 2.0843008160591125e-01</leafValues></_>
    <_>
      <internalNodes>
        0 -1 88919 1.2997154146432877e-02</internalNodes>
      <leafValues>
        -1.9773012399673462e-01 5.9365302324295044e-01</leafValues></_>
    <_>
      <internalNodes>
        0 -1 116228 -5.1171923987567425e-03</internalNodes>
      <leafValues>
        6.7472589015960693e-01 -1.3249674439430237e-01</leafValues></_>
    <_>
      <internalNodes>
        0 -1 63007 -6.1058774590492249e-03</internalNodes>
      <leafValues>
        -5.6463736295700073e-01 1.9238154590129852e-01</leafValues></_>
    <_>
      <internalNodes>
        0 -1 1296 -7.7149271965026855e-02</internalNodes>
      <leafValues>
        -6.6458380222320557e-01 1.6490718722343445e-01</leafValues></_></weakClassifiers></stage6>
</opencv_storage>
