<?xml version="1.0"?>
<opencv_storage>
<cascade>
  <stageType>BOOST</stageType>
  <featureType>HAAR</featureType>
  <height>30</height>
  <width>30</width>
  <stageParams>
    <boostType>GAB</boostType>
    <minHitRate>9.9900001287460327e-01</minHitRate>
    <maxFalseAlarm>5.0000000000000000e-01</maxFalseAlarm>
    <weightTrimRate>9.4999999999999996e-01</weightTrimRate>
    <maxDepth>1</maxDepth>
    <maxWeakCount>100</maxWeakCount></stageParams>
  <featureParams>
    <maxCatCount>0</maxCatCount>
    <featSize>1</featSize>
    <mode>ALL</mode></featureParams>
  <stageNum>18</stageNum>
  <stages>
    <!-- stage 0 -->
    <_>
      <maxWeakCount>2</maxWeakCount>
      <stageThreshold>-2.7988567948341370e-01</stageThreshold>
      <weakClassifiers>
        <_>
          <internalNodes>
            0 -1 12 -1.3915487565100193e-02</internalNodes>
          <leafValues>
            8.9473682641983032e-01 -7.8378379344940186e-01</leafValues></_>
        <_>
          <internalNodes>
            0 -1 38 4.0645189583301544e-03</internalNodes>
          <leafValues>
            -9.7797042131423950e-01 5.0389814376831055e-01</leafValues></_></weakClassifiers></_>
    <!-- stage 1 -->
    <_>
      <maxWeakCount>3</maxWeakCount>
      <stageThreshold>-1.0695551633834839e+00</stageThreshold>
      <weakClassifiers>
        <_>
          <internalNodes>
            0 -1 13 5.6196693331003189e-03</internalNodes>
          <leafValues>
            -7.8181821107864380e-01 8.0000001192092896e-01</leafValues></_>
        <_>
          <internalNodes>
            0 -1 24 -7.2343070060014725e-03</internalNodes>
          <leafValues>
            6.6909033060073853e-01 -7.3750334978103638e-01</leafValues></_>
        <_>
          <internalNodes>
            0 -1 18 -6.4024291932582855e-03</internalNodes>
          <leafValues>
            4.4976636767387390e-01 -9.7844630479812622e-01</leafValues></_></weakClassifiers></_>
    <!-- stage 2 -->
    <_>
      <maxWeakCount>3</maxWeakCount>
      <stageThreshold>-1.1230944395065308e+00</stageThreshold>
      <weakClassifiers>
        <_>
          <internalNodes>
            0 -1 8 1.9506957381963730e-02</internalNodes>
          <leafValues>
            -7.5221240520477295e-01 8.8235294818878174e-01</leafValues></_>
        <_>
          <internalNodes>
            0 -1 15 -6.0405051335692406e-03</internalNodes>
          <leafValues>
            8.0464971065521240e-01 -7.7351868152618408e-01</leafValues></_>
        <_>
          <internalNodes>
            0 -1 40 4.4314039405435324e-04</internalNodes>
          <leafValues>
            4.0263658761978149e-01 -1.</leafValues></_></weakClassifiers></_>
    <!-- stage 3 -->
    <_>
      <maxWeakCount>4</maxWeakCount>
      <stageThreshold>-4.9225872755050659e-01</stageThreshold>
      <weakClassifiers>
        <_>
          <internalNodes>
            0 -1 43 -1.7685892060399055e-02</internalNodes>
          <leafValues>
            6.1904764175415039e-01 -7.6146787405014038e-01</leafValues></_>
        <_>
          <internalNodes>
            0 -1 7 -2.6738071441650391e-01</internalNodes>
          <leafValues>
            8.0336898565292358e-01 -6.2815463542938232e-01</leafValues></_>
        <_>
          <internalNodes>
            0 -1 26 7.5946408323943615e-03</internalNodes>
          <leafValues>
            4.0800043940544128e-01 -1.</leafValues></_>
        <_>
          <internalNodes>
            0 -1 33 -2.4960259906947613e-03</internalNodes>
          <leafValues>
            4.8936334252357483e-01 -7.7415531873703003e-01</leafValues></_></weakClassifiers></_>
    <!-- stage 4 -->
    <_>
      <maxWeakCount>2</maxWeakCount>
      <stageThreshold>-5.0815671682357788e-01</stageThreshold>
      <weakClassifiers>
        <_>
          <internalNodes>
            0 -1 4 1.2223185971379280e-02</internalNodes>
          <leafValues>
            -7.9245281219482422e-01 5.8333331346511841e-01</leafValues></_>
        <_>
          <internalNodes>
            0 -1 25 6.2719760462641716e-03</internalNodes>
          <leafValues>
            2.8429612517356873e-01 -1.</leafValues></_></weakClassifiers></_>
    <!-- stage 5 -->
    <_>
      <maxWeakCount>3</maxWeakCount>
      <stageThreshold>-7.9353350400924683e-01</stageThreshold>
      <weakClassifiers>
        <_>
          <internalNodes>
            0 -1 6 7.6891593635082245e-02</internalNodes>
          <leafValues>
            -7.0940172672271729e-01 1.</leafValues></_>
        <_>
          <internalNodes>
            0 -1 46 3.5168747417628765e-03</internalNodes>
          <leafValues>
            -6.5467631816864014e-01 9.6046340465545654e-01</leafValues></_>
        <_>
          <internalNodes>
            0 -1 21 -1.1735603213310242e-02</internalNodes>
          <leafValues>
            -1. 5.7054454088211060e-01</leafValues></_></weakClassifiers></_>
    <!-- stage 6 -->
    <_>
      <maxWeakCount>3</maxWeakCount>
      <stageThreshold>-7.1374869346618652e-01</stageThreshold>
      <weakClassifiers>
        <_>
          <internalNodes>
            0 -1 9 7.0363268256187439e-02</internalNodes>
          <leafValues>
            -7.2413790225982666e-01 1.</leafValues></_>
        <_>
          <internalNodes>
            0 -1 45 4.7842687927186489e-03</internalNodes>
          <leafValues>
            -5.5879515409469604e-01 8.2403093576431274e-01</leafValues></_>
        <_>
          <internalNodes>
            0 -1 36 1.1277131270617247e-03</internalNodes>
          <leafValues>
            -7.5035601854324341e-01 5.6918442249298096e-01</leafValues></_></weakClassifiers></_>
    <!-- stage 7 -->
    <_>
      <maxWeakCount>4</maxWeakCount>
      <stageThreshold>-4.5371189713478088e-01</stageThreshold>
      <weakClassifiers>
        <_>
          <internalNodes>
            0 -1 37 -8.6510904133319855e-02</internalNodes>
          <leafValues>
            1. -6.9491523504257202e-01</leafValues></_>
        <_>
          <internalNodes>
            0 -1 44 6.9979438558220863e-03</internalNodes>
          <leafValues>
            -6.3531035184860229e-01 6.7837494611740112e-01</leafValues></_>
        <_>
          <internalNodes>
            0 -1 47 -2.3114797659218311e-04</internalNodes>
          <leafValues>
            -9.0426307916641235e-01 4.9251610040664673e-01</leafValues></_>
        <_>
          <internalNodes>
            0 -1 22 2.4152186233550310e-04</internalNodes>
          <leafValues>
            -7.7548813819885254e-01 4.6709153056144714e-01</leafValues></_></weakClassifiers></_>
    <!-- stage 8 -->
    <_>
      <maxWeakCount>2</maxWeakCount>
      <stageThreshold>-3.7857455015182495e-01</stageThreshold>
      <weakClassifiers>
        <_>
          <internalNodes>
            0 -1 3 1.4555786736309528e-02</internalNodes>
          <leafValues>
            -7.0689654350280762e-01 8.5714286565780640e-01</leafValues></_>
        <_>
          <internalNodes>
            0 -1 32 1.6513129230588675e-03</internalNodes>
          <leafValues>
            3.2832202315330505e-01 -1.</leafValues></_></weakClassifiers></_>
    <!-- stage 9 -->
    <_>
      <maxWeakCount>3</maxWeakCount>
      <stageThreshold>-8.7487727403640747e-01</stageThreshold>
      <weakClassifiers>
        <_>
          <internalNodes>
            0 -1 29 -7.3161900043487549e-02</internalNodes>
          <leafValues>
            1. -7.0940172672271729e-01</leafValues></_>
        <_>
          <internalNodes>
            0 -1 1 -2.2643780708312988e-01</internalNodes>
          <leafValues>
            7.9905641078948975e-01 -7.0091581344604492e-01</leafValues></_>
        <_>
          <internalNodes>
            0 -1 28 8.7509080767631531e-03</internalNodes>
          <leafValues>
            5.3544026613235474e-01 -1.</leafValues></_></weakClassifiers></_>
    <!-- stage 10 -->
    <_>
      <maxWeakCount>2</maxWeakCount>
      <stageThreshold>-4.0500107407569885e-01</stageThreshold>
      <weakClassifiers>
        <_>
          <internalNodes>
            0 -1 11 8.8314888998866081e-03</internalNodes>
          <leafValues>
            -7.2173911333084106e-01 8.6666667461395264e-01</leafValues></_>
        <_>
          <internalNodes>
            0 -1 42 -6.3959458202589303e-05</internalNodes>
          <leafValues>
            -9.7286474704742432e-01 3.1673806905746460e-01</leafValues></_></weakClassifiers></_>
    <!-- stage 11 -->
    <_>
      <maxWeakCount>2</maxWeakCount>
      <stageThreshold>-3.4756514430046082e-01</stageThreshold>
      <weakClassifiers>
        <_>
          <internalNodes>
            0 -1 41 1.1890428140759468e-02</internalNodes>
          <leafValues>
            -6.9491523504257202e-01 1.</leafValues></_>
        <_>
          <internalNodes>
            0 -1 30 -5.4476502555189654e-05</internalNodes>
          <leafValues>
            3.4735009074211121e-01 -1.</leafValues></_></weakClassifiers></_>
    <!-- stage 12 -->
    <_>
      <maxWeakCount>3</maxWeakCount>
      <stageThreshold>-5.1721507310867310e-01</stageThreshold>
      <weakClassifiers>
        <_>
          <internalNodes>
            0 -1 5 2.5273254141211510e-04</internalNodes>
          <leafValues>
            -1.6949152573943138e-02 -9.7183096408843994e-01</leafValues></_>
        <_>
          <internalNodes>
            0 -1 27 -9.0815155999734998e-06</internalNodes>
          <leafValues>
            -8.2007467746734619e-01 3.0867126584053040e-01</leafValues></_>
        <_>
          <internalNodes>
            0 -1 35 -2.7987519279122353e-03</internalNodes>
          <leafValues>
            4.5644214749336243e-01 -8.0893719196319580e-01</leafValues></_></weakClassifiers></_>
    <!-- stage 13 -->
    <_>
      <maxWeakCount>3</maxWeakCount>
      <stageThreshold>-1.1891089677810669e+00</stageThreshold>
      <weakClassifiers>
        <_>
          <internalNodes>
            0 -1 2 1.1232025921344757e-01</internalNodes>
          <leafValues>
            -7.2413790225982666e-01 1.</leafValues></_>
        <_>
          <internalNodes>
            0 -1 39 -2.5346555048599839e-04</internalNodes>
          <leafValues>
            -8.3363521099090576e-01 4.4103214144706726e-01</leafValues></_>
        <_>
          <internalNodes>
            0 -1 19 7.0044188760221004e-04</internalNodes>
          <leafValues>
            3.6866414546966553e-01 -9.2076510190963745e-01</leafValues></_></weakClassifiers></_>
    <!-- stage 14 -->
    <_>
      <maxWeakCount>3</maxWeakCount>
      <stageThreshold>-8.9383357763290405e-01</stageThreshold>
      <weakClassifiers>
        <_>
          <internalNodes>
            0 -1 10 3.6233130842447281e-02</internalNodes>
          <leafValues>
            -7.2413790225982666e-01 1.</leafValues></_>
        <_>
          <internalNodes>
            0 -1 48 3.9979189750738442e-05</internalNodes>
          <leafValues>
            3.9014843106269836e-01 -8.4347772598266602e-01</leafValues></_>
        <_>
          <internalNodes>
            0 -1 34 -2.0052384585142136e-02</internalNodes>
          <leafValues>
            8.4176236391067505e-01 -5.5984407663345337e-01</leafValues></_></weakClassifiers></_>
    <!-- stage 15 -->
    <_>
      <maxWeakCount>3</maxWeakCount>
      <stageThreshold>-7.9647350311279297e-01</stageThreshold>
      <weakClassifiers>
        <_>
          <internalNodes>
            0 -1 14 -5.2824057638645172e-03</internalNodes>
          <leafValues>
            1. -6.9491523504257202e-01</leafValues></_>
        <_>
          <internalNodes>
            0 -1 31 1.1199568398296833e-03</internalNodes>
          <leafValues>
            -5.8504521846771240e-01 7.1515059471130371e-01</leafValues></_>
        <_>
          <internalNodes>
            0 -1 17 2.1314737750799395e-05</internalNodes>
          <leafValues>
            4.8348695039749146e-01 -1.</leafValues></_></weakClassifiers></_>
    <!-- stage 16 -->
    <_>
      <maxWeakCount>2</maxWeakCount>
      <stageThreshold>-3.5556396842002869e-01</stageThreshold>
      <weakClassifiers>
        <_>
          <internalNodes>
            0 -1 0 4.6990585327148438e-01</internalNodes>
          <leafValues>
            -7.3684209585189819e-01 8.7500000000000000e-01</leafValues></_>
        <_>
          <internalNodes>
            0 -1 16 -4.3853931128978729e-03</internalNodes>
          <leafValues>
            -9.2803251743316650e-01 3.8127812743186951e-01</leafValues></_></weakClassifiers></_>
    <!-- stage 17 -->
    <_>
      <maxWeakCount>2</maxWeakCount>
      <stageThreshold>-2.2342032194137573e-01</stageThreshold>
      <weakClassifiers>
        <_>
          <internalNodes>
            0 -1 20 1.6276780515909195e-03</internalNodes>
          <leafValues>
            -8.3486241102218628e-01 1.</leafValues></_>
        <_>
          <internalNodes>
            0 -1 23 -7.5676169944927096e-04</internalNodes>
          <leafValues>
            -9.2327040433883667e-01 6.1144208908081055e-01</leafValues></_></weakClassifiers></_></stages>
  <features>
    <_>
      <rects>
        <_>
          0 0 21 27 -1.</_>
        <_>
          7 9 7 9 9.</_></rects>
      <tilted>0</tilted></_>
    <_>
      <rects>
        <_>
          0 0 19 30 -1.</_>
        <_>
          0 10 19 10 3.</_></rects>
      <tilted>0</tilted></_>
    <_>
      <rects>
        <_>
          0 0 29 12 -1.</_>
        <_>
          0 4 29 4 3.</_></rects>
      <tilted>0</tilted></_>
    <_>
      <rects>
        <_>
          0 11 6 3 -1.</_>
        <_>
          2 11 2 3 3.</_></rects>
      <tilted>0</tilted></_>
    <_>
      <rects>
        <_>
          0 13 4 6 -1.</_>
        <_>
          2 13 2 6 2.</_></rects>
      <tilted>0</tilted></_>
    <_>
      <rects>
        <_>
          0 17 1 9 -1.</_>
        <_>
          0 20 1 3 3.</_></rects>
      <tilted>0</tilted></_>
    <_>
      <rects>
        <_>
          1 0 4 28 -1.</_>
        <_>
          1 7 4 14 2.</_></rects>
      <tilted>0</tilted></_>
    <_>
      <rects>
        <_>
          1 0 28 28 -1.</_>
        <_>
          1 7 28 14 2.</_></rects>
      <tilted>0</tilted></_>
    <_>
      <rects>
        <_>
          1 2 16 1 -1.</_>
        <_>
          5 6 8 1 2.</_></rects>
      <tilted>1</tilted></_>
    <_>
      <rects>
        <_>
          2 0 12 8 -1.</_>
        <_>
          2 4 12 4 2.</_></rects>
      <tilted>0</tilted></_>
    <_>
      <rects>
        <_>
          2 0 23 4 -1.</_>
        <_>
          2 2 23 2 2.</_></rects>
      <tilted>0</tilted></_>
    <_>
      <rects>
        <_>
          2 28 28 2 -1.</_>
        <_>
          2 28 14 1 2.</_>
        <_>
          16 29 14 1 2.</_></rects>
      <tilted>0</tilted></_>
    <_>
      <rects>
        <_>
          3 0 8 1 -1.</_>
        <_>
          3 0 4 1 2.</_></rects>
      <tilted>1</tilted></_>
    <_>
      <rects>
        <_>
          4 12 1 4 -1.</_>
        <_>
          4 12 1 2 2.</_></rects>
      <tilted>1</tilted></_>
    <_>
      <rects>
        <_>
          4 16 3 2 -1.</_>
        <_>
          4 16 3 1 2.</_></rects>
      <tilted>1</tilted></_>
    <_>
      <rects>
        <_>
          4 16 12 2 -1.</_>
        <_>
          4 16 12 1 2.</_></rects>
      <tilted>1</tilted></_>
    <_>
      <rects>
        <_>
          7 10 9 10 -1.</_>
        <_>
          10 10 3 10 3.</_></rects>
      <tilted>0</tilted></_>
    <_>
      <rects>
        <_>
          8 6 2 19 -1.</_>
        <_>
          9 6 1 19 2.</_></rects>
      <tilted>0</tilted></_>
    <_>
      <rects>
        <_>
          9 14 8 10 -1.</_>
        <_>
          13 14 4 10 2.</_></rects>
      <tilted>0</tilted></_>
    <_>
      <rects>
        <_>
          9 16 4 5 -1.</_>
        <_>
          10 16 2 5 2.</_></rects>
      <tilted>0</tilted></_>
    <_>
      <rects>
        <_>
          10 8 6 6 -1.</_>
        <_>
          10 10 6 2 3.</_></rects>
      <tilted>0</tilted></_>
    <_>
      <rects>
        <_>
          10 10 16 12 -1.</_>
        <_>
          10 10 8 6 2.</_>
        <_>
          18 16 8 6 2.</_></rects>
      <tilted>0</tilted></_>
    <_>
      <rects>
        <_>
          10 11 2 6 -1.</_>
        <_>
          10 14 2 3 2.</_></rects>
      <tilted>0</tilted></_>
    <_>
      <rects>
        <_>
          11 4 3 12 -1.</_>
        <_>
          11 8 3 4 3.</_></rects>
      <tilted>0</tilted></_>
    <_>
      <rects>
        <_>
          11 20 5 4 -1.</_>
        <_>
          11 20 5 2 2.</_></rects>
      <tilted>1</tilted></_>
    <_>
      <rects>
        <_>
          13 4 12 8 -1.</_>
        <_>
          17 4 4 8 3.</_></rects>
      <tilted>0</tilted></_>
    <_>
      <rects>
        <_>
          13 5 8 20 -1.</_>
        <_>
          13 5 4 10 2.</_>
        <_>
          17 15 4 10 2.</_></rects>
      <tilted>0</tilted></_>
    <_>
      <rects>
        <_>
          13 6 12 6 -1.</_>
        <_>
          17 10 4 6 3.</_></rects>
      <tilted>1</tilted></_>
    <_>
      <rects>
        <_>
          13 9 9 7 -1.</_>
        <_>
          16 12 3 7 3.</_></rects>
      <tilted>1</tilted></_>
    <_>
      <rects>
        <_>
          14 2 16 8 -1.</_>
        <_>
          22 2 8 8 2.</_></rects>
      <tilted>0</tilted></_>
    <_>
      <rects>
        <_>
          14 7 2 4 -1.</_>
        <_>
          15 7 1 4 2.</_></rects>
      <tilted>0</tilted></_>
    <_>
      <rects>
        <_>
          15 15 3 1 -1.</_>
        <_>
          16 15 1 1 3.</_></rects>
      <tilted>0</tilted></_>
    <_>
      <rects>
        <_>
          16 4 6 10 -1.</_>
        <_>
          16 4 3 5 2.</_>
        <_>
          19 9 3 5 2.</_></rects>
      <tilted>0</tilted></_>
    <_>
      <rects>
        <_>
          16 17 3 9 -1.</_>
        <_>
          13 20 3 3 3.</_></rects>
      <tilted>1</tilted></_>
    <_>
      <rects>
        <_>
          16 18 7 12 -1.</_>
        <_>
          16 21 7 6 2.</_></rects>
      <tilted>0</tilted></_>
    <_>
      <rects>
        <_>
          17 7 6 8 -1.</_>
        <_>
          19 9 2 8 3.</_></rects>
      <tilted>1</tilted></_>
    <_>
      <rects>
        <_>
          17 15 3 4 -1.</_>
        <_>
          18 16 1 4 3.</_></rects>
      <tilted>1</tilted></_>
    <_>
      <rects>
        <_>
          18 1 12 13 -1.</_>
        <_>
          24 1 6 13 2.</_></rects>
      <tilted>0</tilted></_>
    <_>
      <rects>
        <_>
          19 3 6 4 -1.</_>
        <_>
          19 3 3 4 2.</_></rects>
      <tilted>1</tilted></_>
    <_>
      <rects>
        <_>
          19 10 4 3 -1.</_>
        <_>
          19 11 4 1 3.</_></rects>
      <tilted>0</tilted></_>
    <_>
      <rects>
        <_>
          21 13 6 12 -1.</_>
        <_>
          21 16 6 6 2.</_></rects>
      <tilted>0</tilted></_>
    <_>
      <rects>
        <_>
          21 20 8 2 -1.</_>
        <_>
          21 20 4 2 2.</_></rects>
      <tilted>1</tilted></_>
    <_>
      <rects>
        <_>
          22 21 2 2 -1.</_>
        <_>
          23 21 1 2 2.</_></rects>
      <tilted>0</tilted></_>
    <_>
      <rects>
        <_>
          24 9 6 8 -1.</_>
        <_>
          27 9 3 8 2.</_></rects>
      <tilted>0</tilted></_>
    <_>
      <rects>
        <_>
          26 16 4 4 -1.</_>
        <_>
          28 16 2 4 2.</_></rects>
      <tilted>0</tilted></_>
    <_>
      <rects>
        <_>
          27 10 2 12 -1.</_>
        <_>
          28 10 1 12 2.</_></rects>
      <tilted>0</tilted></_>
    <_>
      <rects>
        <_>
          28 14 2 6 -1.</_>
        <_>
          29 14 1 6 2.</_></rects>
      <tilted>0</tilted></_>
    <_>
      <rects>
        <_>
          29 5 1 2 -1.</_>
        <_>
          29 6 1 1 2.</_></rects>
      <tilted>0</tilted></_>
    <_>
      <rects>
        <_>
          29 5 1 4 -1.</_>
        <_>
          29 6 1 2 2.</_></rects>
      <tilted>0</tilted></_></features></cascade>
</opencv_storage>
